tree
version=v4
num_class=1
num_tree_per_iteration=1
label_index=0
max_feature_idx=7
objective=regression
feature_names=Column_0 Column_1 Column_2 Column_3 Column_4 Column_5 Column_6 Column_7
feature_infos=[-2.0858314077665581:13.622334934663632] [-0.65938670306446334:1.7523118070066304] [-1.6896759212540529:5.4427627379546264] [-1.5660708661079388:2.4461032234270927] [-2.1957842724909993:11.448801591876709] [-1.1881901429543718:19.884229111133241] [-2.6160326552911521:13.462847434060388] [-1.3849585462917691:1.8866225255997084]
tree_sizes=2931 2844 2830 2837 2835 2833 2843 2838 2850 2836 2825 2827 2825 2828 2837 2817 2824 2834 2846 2826 2816 2818 2818 2823 2844 2831 2814 2809 2808 2798 2813 2815 2820 2835 2812 2811 2789 2819 2814 2799 2811 2842 2820 2848 2813 2817 2813 2820 2827 2809 2784 2807 2817 2813 2811 2806 2800 2862 2812 2827 2811 2833 2790 2799 2788 2808 2781 2814 2823 2785 2786 2786 2796 2812 2804 2814 2800 2799 2781 2780 2817 2777 2804 2801 2828 2815 2808 2809 2785 2794 2782 2755 2801 2749 2832 2812 2822 2822 2821 2814 2811 2790 2786 2808 2826 2795 2821 2797 2790 2769 2753 2761 2816 2811 2782 2785 2798 2830 2806 2831 2799 2762 2814 2784 2818 2769 2772 2771 2792 2804 2818 2755 2770 2809 2795 2757 2789 2799 2776 2803 2818 2794 2819 2814 2802 2802 2764 2785 2802 2777 2752 2774 2777 2752 2793 2763 2772 2786 2760 2803 2783 2807 2793 2773 2784 2821 2812 2776 2774 2840 2750 2817 2808 2808 2850 2787 2769 2806 2801 2779 2785 2797 2798 2771 2804 2807 2790 2804 2755 2782 2797 2753 2773 2793 2771 2755 2752 2779 2780 2746 2804 2807 2805 2791 2807 2826 2781 2823 2847 2773 2801 2787 2798 2807 2773 2781 2761 2748 2766 2769 2780 2747 2758 2756 2807 2764 2787 2756 2778 2778 2742 2806 2754 2815 2777 2809 2803 2833 2805 2816 2823 2800 2816 2761 2751 2762 2777 2796 2765 2787 2762 2784 2809 2787 2763 2815 2808 2790 2788 2773 2778 2766 2776 2782 2783 2787 2764 2795 2791 2764 2824 2776 2811 2801 2744 2805 2814 2799 2791 2788 2780 2757 2785 2765 2757 2781 2781 2793 2824 2766 2777 2823 2813 2767 2822 2802 2811 2842 2849 2794 2777 2740 2793 2750 2786 2797 2789 2806 2810 2808 2787 2783 2802 2795 2788 2770 2805 2782 2770 2768 2840 2760 2798 2796 2775 2795 2804 2803 2764 2814 2788 2729 2768 2777 2810 2758 2742 2771 2772 2782 2768 2742 2765 2760 2797 2804 2813 2793 2767 2775 2780 2797 2754 2792 2765 2785 2809 2775 2769 2809 2817 2816 2767 2804 2821 2783 2793 2801 2791 2813 2781 2761 2768 2762 2780 2765 2766 2797 2805 2762 2782 2796 2775 2796 2786 2766 2789 2751 2797 2751 2768 2750 2792 2736 2793 2786 2775 2800 2791 2738 2816 2819 2812 2833 2815 2787 2766 2779 2797 2824 2775 2823 2781 2735 2801 2760 2787 2794 2790 2771 2760 2767 2759 2763 2769 2787 2820 2800 2789 2832 2795 2767 2775 2808 2809 2794 2798 2785 2818 2772 2795 2754 2756 2803 2769 2771 2778 2811 2807 2787 2771 2794 2782 2813 2766 2776 2761 2830 2781 2818 2792 2788 2802 2794 2821 2792 2796 2782 2764 2798 2798 2808 2812 2801 2786 2754 2788 2773 2782 2761 2800 2792 2780 2780 2788 2805 2785 2787 2818 2796 2805 2788 2779 2819 2793 2815 2782 2780 2795 2818 2805 2825 2785 2778 2773 2791 2819 2796 2812 2753 2794 2810 2742 2762 2786 2779 2763 2767 2759 2766 2774 2789 2790 2829 2792 2813 2818 2812 2805 2754 2804 2797 2807 2788 2766 2785 2764 2793 2776 2754 2793 2789 2802 2772 2771 2807 2763 2791 2805 2795 2779 2783 2784 2782 2764 2778 2788 2748 2791 2818 2822 2783 2784 2824 2774 2804 2814 2810 2794 2777 2799 2797 2802 2789 2808 2798 2823 2803 2772 2815 2794 2785 2772 2778 2788 2793 2807 2797 2785 2788 2779 2816 2774 2797 2783 2801 2796 2781 2788 2780 2808 2771 2809 2802 2823 2786 2764 2768 2788 2775 2811 2800 2790 2820 2785 2806 2806 2781 2801 2789 2790 2766 2797 2784 2749 2804 2777 2801 2793 2809 2775 2785 2747 2785 2797 2813 2789 2823 2756 2828 2785 2801 2809 2766 2774 2749 2762 2758 2752 2785 2785 2776 2776 2795 2776 2774 2781 2775 2790 2812 2779 2784 2801 2786 2761 2789 2806 2792 2764 2764 2813 2782 2787 2798 2773 2817 2786 2795 2806 2800 2774 2776 2791 2815 2818 2806 2757 2779 2800 2785 2788 2780 2766 2765 2782 2786 2793 2794 2803 2796 2767 2781 2786 2782 2819 2778 2759 2788 2805 2771 2789 2784 2749 2770 2817 2783 2780 2784 2785 2766 2766 2774 2777 2732 2775 2814 2786 2792 2819 2818 2801 2774 2779 2845 2777 2775 2777 2776 2776 2777 2816 2784 2786 2782 2772 2834 2802 2807 2819 2821 2781 2792 2784 2806 2793 2813 2794 2780 2826 2815 2800 2787 2814 2804 2820 2798 2797 2755 2782 2795 2818 2820 2807 2775 2830 2800 2749 2795 2802 2801 2799 2798 2811 2799 2789 2780 2815 2819 2788 2808 2790 2799 2778 2804 2787 2826 2810 2787 2826 2770 2782 2810 2816 2802 2791 2792 2796 2789 2760 2780 2764 2786 2772 2767 2737 2808 2781 2815 2823 2764 2783 2782 2783 2805 2784 2817 2746 2778 2804 2777 2773 2796 2797 2781 2770 2802 2764 2790 2799 2818 2768 2794 2817 2767 2791 2778 2788 2765 2780 2785 2810 2796 2787 2784 2755 2799 2775 2771 2799 2781 2833 2804 2763 2793 2826 2802 2780 2800 2807 2797 2783 2810 2807 2751 2776 2794 2777 2800 2783 2777 2777 2819 2792 2788 2771 2807 2797 2781 2796 2781 2795 2780 2800 2792 2772 2761 2789 2777 2803 2765 2816 2783 2767 2782 2771 2798 2803 2798 2807 2804 2827 2798 2815 2784 2783 2806 2785 2813 2779 2791 2802 2770 2843 2812 2829 2789 2779 2784 2795 2800 2807 2765 2832 2786 2822 2789 2788 2790 2795 2788 2766 2814 2782 2785 2842 2778 2801 2800 2796 2816 2750 2801 2760 2788 2767 2793 2783 2779 2806 2811 2781 2797 2782 2797 2804 2816 2779 2775 2779 2759 2748 2780 2780 2787 2769 2810 2769 2826 2805 2777 2787 2800 2769 2807 2797 2801 2794 2759 2772 2789 2801 2827 2797 2790 2760 2816 2765 2762 2776 2778

Tree=0
num_leaves=31
num_cat=0
split_feature=0 2 1 7 7 2 2 7 0 7 4 7 7 7 0 7 2 2 5 5 0 7 0 5 2 5 1 2 2 5
split_gain=9.45278e+14 6.76587e+14 3.41286e+14 2.39452e+14 2.32579e+14 2.2682e+14 9.43513e+13 7.98652e+13 7.54803e+13 6.47873e+13 5.77059e+13 5.74436e+13 5.52491e+13 7.06626e+13 5.07305e+13 4.64995e+13 4.15998e+13 4.13465e+13 3.49359e+13 3.42626e+13 3.36667e+13 2.79148e+13 2.42134e+13 2.30954e+13 2.21093e+13 2.13208e+13 2.05371e+13 1.84621e+13 1.75806e+13 1.73746e+13
threshold=0.53219631597180694 0.0081707034432314477 1.1493871794888573 -1.1293662750502471 1.2220826203717523 -0.15494119936611456 0.88304363669336039 -1.3338400920434645 1.0000000180025095e-35 -1.1293662750502471 3.1104435636519985 -1.3338400920434645 1.2220826203717523 -1.1293662750502471 1.0000000180025095e-35 -1.3338400920434645 -0.4811650049848068 -1.0742991970187925 0.78292084118115246 0.30204874487466626 1.5794074054671532 1.5287933458615783 -1.5622258630188848 1.2080396509593505 -1.1113700840209164 0.320633173717429 1.0000000180025095e-35 -0.33288145697631039 -0.56272095638947972 -0.44365146244118903
decision_type=2 2 2 2 2 2 2 2 2 2 2 2 2 2 2 2 2 2 2 2 2 2 2 2 2 2 2 2 2 2
left_child=2 3 5 7 16 8 21 -2 26 11 18 -7 13 15 22 -10 24 -15 27 -11 28 23 -4 -3 -5 -17 -1 -9 29 -6
right_child=1 6 14 4 20 9 -8 10 12 19 -12 -13 -14 17 -16 25 -18 -19 -20 -21 -22 -23 -24 -25 -26 -27 -28 -29 -30 -31
leaf_value=1039550.2418510958 1087503.4526041497 1059660.9880292378 974858.94972545793 1149676.4448343595 1134896.6097149865 1016836.1410877701 1017074.343398439 1182751.7083612555 1036913.6345437015 1009153.9010258827 1280298.5246188329 1075073.8540694057 1098076.5734251027 1093389.7623896254 1022654.0021675519 1091063.892289253 1054765.6393743241 1040906.843658243 1233934.2579184279 1031286.9293931067 1291087.8930577468 1003020.4800191011 996776.67975375045 1141926.5533413603 1087562.3548551765 1143244.173103265 1008852.8369316694 1145094.0064842175 1126958.2823355983 1231207.253911223
leaf_weight=948 111 1367 660 66 26 316 884 230 136 2868 52 365 375 167 648 308 490 1484 76 925 34 86 2133 35 435 105 283 300 43 67
leaf_count=948 111 1367 660 66 26 316 884 230 136 2868 52 365 375 167 648 308 490 1484 76 925 34 86 2133 35 435 105 283 300 43 67
internal_value=1.03855e+06 1.07872e+06 1.02392e+06 1.12269e+06 1.09402e+06 1.03492e+06 1.04295e+06 1.16597e+06 1.05286e+06 1.01965e+06 1.1792e+06 1.04805e+06 1.0626e+06 1.05655e+06 997446 1.08763e+06 1.07548e+06 1.04622e+06 1.17053e+06 1.01455e+06 1.20208e+06 1.05832e+06 991597 1.06171e+06 1.09575e+06 1.10433e+06 1.03249e+06 1.16144e+06 1.17983e+06 1.20428e+06
internal_weight=0 4302 11721 1930 1161 8280 2372 769 3806 4474 658 681 2575 2200 3441 549 991 1651 606 3793 170 1488 2793 1402 501 413 1231 530 136 93
internal_count=16023 4302 11721 1930 1161 8280 2372 769 3806 4474 658 681 2575 2200 3441 549 991 1651 606 3793 170 1488 2793 1402 501 413 1231 530 136 93
is_linear=0
shrinkage=1


Tree=1
num_leaves=31
num_cat=0
split_feature=4 3 2 4 2 3 5 2 2 5 5 4 6 3 6 5 2 3 6 5 3 2 5 2 5 3 6 7 6 6
split_gain=6.20912e+14 3.44797e+14 2.39912e+14 2.33948e+14 1.72174e+14 1.5075e+14 1.39435e+14 1.26001e+14 8.74624e+13 7.97719e+13 6.87389e+13 5.42606e+13 5.07494e+13 3.78134e+13 3.64297e+13 3.48561e+13 3.14288e+13 3.10954e+13 2.77992e+13 2.42275e+13 2.28455e+13 1.9521e+13 1.81529e+13 1.73531e+13 1.60978e+13 1.46649e+13 1.45917e+13 1.32173e+13 1.27097e+13 1.18337e+13
threshold=1.5943784676111423 -0.056636439219759464 1.2389241519137522 1.0000000180025095e-35 1.0000000180025095e-35 -0.056636439219759464 -0.93381577316905651 -0.34770981177716004 1.0000000180025095e-35 -0.52960444583896671 -1.0011843277240715 1.0000000180025095e-35 3.4018485422950175 0.02126985378092076 1.2492627328940551 0.60869182078025164 -0.40702323098055865 0.02126985378092076 -0.86757143393337877 -0.38325206870221012 1.6183488602948655 0.94235705589675911 0.074389491550822542 -0.63686273039372798 0.29275653045328487 1.7157317265457157 1.4177259701515217 -0.20923409858076925 -1.0530681762913225 0.18232889693009938
decision_type=2 2 2 2 2 2 2 2 2 2 2 2 2 2 2 2 2 2 2 2 2 2 2 2 2 2 2 2 2 2
left_child=1 7 3 6 5 -2 -3 10 9 29 -1 28 15 -8 -11 -7 -14 -6 -15 -10 -4 -19 25 -24 -9 -20 -13 -21 -12 -5
right_child=4 2 20 8 17 12 13 24 19 14 11 26 16 18 -16 -17 -18 21 22 27 -22 -23 23 -25 -26 -27 -28 -29 -30 -31
leaf_value=-42077.88628284986 45366.37559326172 -40556.983485988458 -18264.944769806705 19091.448328140101 -11420.827617472627 113957.91130487352 49501.178643068299 -35363.976783519211 -8924.6960351668349 73775.064546952999 -36982.779739498787 16098.425943312985 314779.68197115388 -26931.740450074503 128523.27542338709 195412.35542279412 174232.33810975612 61183.964103807724 5862.0398321542107 49149.2754513705 -45918.979388427739 4156.9141542016005 -25355.669014345367 31955.342466532562 -19362.027595270898 42406.603274851834 63730.005041852681 22418.725544271161 -7318.0358051884396 68558.080352362274
leaf_weight=481 220 575 881 291 137 231 259 3173 173 563 154 792 26 194 155 68 41 224 2057 295 452 82 58 593 784 116 70 496 2324 58
leaf_count=481 220 575 881 291 137 231 259 3173 173 563 154 792 26 194 155 68 41 224 2057 295 452 82 58 593 784 116 70 496 2324 58
internal_value=0 -5080.17 10663.6 19343.1 75220.7 110786 4862.94 -19686.4 46806.1 66530.9 -6734.07 -1644.13 150110 12832.6 85594 132483 228773 28174.8 9685.72 24973.8 -27642 45902.2 12201.2 26849.3 -32193.5 7812.88 19966.4 32387.8 -9161.61 27312.3
internal_weight=0 14994 7216 5883 1029 586 3852 7778 2031 1067 3821 3340 366 3277 718 299 67 443 3018 964 1333 306 2824 651 3957 2173 862 791 2478 349
internal_count=16023 14994 7216 5883 1029 586 3852 7778 2031 1067 3821 3340 366 3277 718 299 67 443 3018 964 1333 306 2824 651 3957 2173 862 791 2478 349
is_linear=0
shrinkage=0.1


Tree=2
num_leaves=31
num_cat=0
split_feature=0 2 3 0 2 3 3 3 2 2 2 6 0 2 7 6 3 2 2 2 5 5 6 0 5 5 5 2 3 6
split_gain=6.8027e+14 4.67784e+14 3.22877e+14 2.08664e+14 1.94073e+14 1.31548e+14 1.02134e+14 9.46055e+13 8.42514e+13 7.44532e+13 6.63549e+13 5.44932e+13 5.0607e+13 3.85381e+13 3.61386e+13 2.42595e+13 2.30958e+13 2.21832e+13 2.09391e+13 1.82066e+13 1.75234e+13 1.65493e+13 1.58151e+13 1.43395e+13 1.32901e+13 1.24612e+13 1.23492e+13 1.18226e+13 1.16064e+13 1.14081e+13
threshold=0.53219631597180694 0.0081707034432314477 -0.056636439219759464 1.0000000180025095e-35 -0.15494119936611456 -0.056636439219759464 -0.11506615897026962 -0.27087874497163 1.3427226355196995 1.3427226355196995 -0.43667994058225784 3.4767210921872249 -1.5622258630188848 -0.4811650049848068 -0.61818173256720377 1.1342397781221514 1.3846299812928249 1.0000000180025095e-35 -0.76290374620094992 -1.0742991970187925 0.46466249724884029 0.57849212391076221 3.5703117795524846 1.5794074054671532 0.013990097811843587 -0.67131071576503265 1.13834804279899 0.21576767065512653 1.5793957137945254 2.7654318682112549
decision_type=2 2 2 2 2 2 2 2 2 2 2 2 2 2 2 2 2 2 2 2 2 2 2 2 2 2 2 2 2 2
left_child=3 2 13 12 5 18 -3 27 16 17 11 21 -1 -2 22 25 -8 -9 -5 -14 -19 23 26 -4 -21 -7 -12 -6 -10 -15
right_child=1 6 10 4 7 15 8 9 28 -11 14 -13 19 29 -16 -17 -18 20 -20 24 -22 -23 -24 -25 -26 -27 -28 -29 -30 -31
leaf_value=-53377.39114315097 47308.579677638634 -23406.254392881652 110723.3624186198 16640.011462643884 -23315.712859120194 22953.942402210068 27705.477228893615 38572.003079210313 176.9979380375197 -29428.97201201554 92892.531928741271 270104.59833333333 -10133.121494277386 2568.6251206235534 50025.459069122669 120317.49734738372 63447.701701512829 220.21147196230822 -5601.1148531258214 -30176.067865359913 30880.364046813134 176948.88977050781 162846.95558035714 161347.57544770578 -10808.207536849601 49656.098166807897 170331.52215909094 -39271.555879609223 -31254.521467748182 70901.635609494726
leaf_weight=716 510 851 264 657 847 226 819 229 238 691 322 30 723 405 174 43 232 1191 1190 2782 221 64 42 71 406 771 22 1028 232 26
leaf_count=716 510 851 264 657 847 226 819 229 238 691 322 30 723 405 174 43 232 1191 1190 2782 221 64 42 71 406 771 22 1028 232 26
internal_value=0 34079.8 70636.4 -12414 -1638.27 18328.1 4335.16 -15339.9 19856.5 -1893.48 110533 140127 -28935 28704.7 87861.9 46775.1 35595.3 9701.29 2310.32 -24460.3 5019 130354 104918 121453 -27709.5 43603.3 97845 -32063.8 -15338.1 6690.8
internal_weight=0 4302 1930 11721 7094 2887 2372 4207 1521 2332 989 429 4627 941 560 1040 1051 1641 1847 3911 1412 399 386 335 3188 997 344 1875 470 431
internal_count=16023 4302 1930 11721 7094 2887 2372 4207 1521 2332 989 429 4627 941 560 1040 1051 1641 1847 3911 1412 399 386 335 3188 997 344 1875 470 431
is_linear=0
shrinkage=0.1


Tree=3
num_leaves=31
num_cat=0
split_feature=1 3 2 2 2 6 5 1 3 5 6 2 7 7 3 2 2 2 7 5 6 5 6 3 3 3 5 2 5 3
split_gain=5.14854e+14 4.40841e+14 4.95189e+14 1.92513e+14 1.4241e+14 1.03767e+14 6.31419e+13 5.30683e+13 4.79995e+13 3.76674e+13 3.47006e+13 2.89245e+13 2.38047e+13 2.27036e+13 1.83006e+13 1.8244e+13 1.74974e+13 1.5903e+13 1.56316e+13 1.54919e+13 1.24469e+13 1.23571e+13 1.04314e+13 9.97009e+12 9.64993e+12 2.94795e+13 9.6494e+12 9.59166e+12 8.8193e+12 8.73123e+12
threshold=1.0000000180025095e-35 -0.056636439219759464 0.030413235644505838 -0.33288145697631039 1.3427226355196995 2.5408142185346327 -0.50405085618016787 1.1493871794888573 -0.056636439219759464 0.69232175057268408 1.4177259701515217 -0.43667994058225784 1.2220826203717523 -0.61818173256720377 1.6183488602948655 -0.83704552020519818 0.21576767065512653 0.94235705589675911 -0.61818173256720377 0.19286522542343507 4.7869907153008553 0.69232175057268408 2.0541426442352848 -0.27087874497163 0.62504362453619255 0.54713733153551236 -0.041763188716444653 -1.1780976806247399 -0.58071162515656427 -0.27087874497163
decision_type=2 2 2 2 2 2 2 2 2 2 2 2 2 2 2 2 2 2 2 2 2 2 2 2 2 2 2 2 2 2
left_child=1 3 5 10 13 6 -3 8 -2 11 15 24 20 17 -6 28 -5 21 -13 -17 -7 -4 26 -18 25 -8 -15 -26 -1 -9
right_child=7 2 4 16 14 12 9 29 -10 -11 -12 18 -14 22 -16 19 23 -19 -20 -21 -22 -23 -24 -25 27 -27 -28 -29 -30 -31
leaf_value=11913.70726286589 -27422.54966529545 31474.627248230649 55630.042201425647 -14160.120954177473 -10492.16101420558 115484.06529796513 80752.55755226074 -39003.815857082569 5699.2337892185351 120156.13788316083 63304.016526388266 66786.125852458237 251143.67574404762 -8826.2147514763783 -36582.489840784307 849.35981036709643 -31935.987942116477 1450.5932420917588 37458.045529134113 27790.886503393267 186955.5286764706 136467.50908668156 51207.048940728637 -11168.506989159305 133117.4812890625 149940.50985008446 20075.330527237253 60597.175848713021 33154.980145962894 -28770.681578013275
leaf_weight=341 912 457 190 1479 645 86 367 1393 841 157 139 461 21 127 461 1259 1540 51 300 257 34 21 98 272 20 74 1278 207 458 2077
leaf_count=341 912 457 190 1479 645 86 367 1393 841 157 139 461 21 127 461 1259 1540 51 300 257 34 21 98 272 20 74 1278 207 458 2077
internal_value=0 12527.9 34066.3 -6423.61 6768.08 69951.5 64225.2 -25714.2 -11532.4 73662.1 14775.2 68553.9 152923 24398.4 -21367.1 11861.4 -22231 51563 55224.5 5416.62 135734 63675.5 19663.1 -28818.6 83739.1 92362.3 17462.9 66986.6 24089.6 -32878.7
internal_weight=0 10800 5055 5745 2871 2184 2043 5223 1753 1586 2454 1429 141 1765 1106 2315 3291 262 761 1516 120 211 1503 1812 668 441 1405 227 799 3470
internal_count=16023 10800 5055 5745 2871 2184 2043 5223 1753 1586 2454 1429 141 1765 1106 2315 3291 262 761 1516 120 211 1503 1812 668 441 1405 227 799 3470
is_linear=0
shrinkage=0.1


Tree=4
num_leaves=31
num_cat=0
split_feature=1 3 2 2 4 2 4 5 4 5 2 7 1 4 3 4 3 5 2 5 5 3 2 5 2 5 2 5 2 3
split_gain=4.17032e+14 3.57081e+14 4.01103e+14 1.55936e+14 1.29099e+14 1.17076e+14 4.40358e+13 4.27907e+13 3.62813e+13 2.78917e+13 2.53124e+13 2.12346e+13 2.1213e+13 1.96265e+13 1.88013e+13 1.87183e+13 1.77983e+13 1.72199e+13 1.43445e+13 1.403e+13 1.3066e+13 1.25999e+13 1.07051e+13 9.46145e+12 1.0928e+13 9.28e+12 9.1662e+12 8.94406e+12 8.92339e+12 8.80789e+12
threshold=1.0000000180025095e-35 -0.056636439219759464 0.030413235644505838 -0.33288145697631039 1.5943784676111423 1.5725621349328691 1.0000000180025095e-35 -0.69454125181848614 1.0000000180025095e-35 0.7318136618635549 -0.33288145697631039 -0.61818173256720377 1.1493871794888573 3.1104435636519985 -0.056636439219759464 3.1104435636519985 -0.037159865969589402 0.57849212391076221 0.14162589665087832 -0.027824867084372595 0.55526158785730872 0.58609047803585246 -1.1929260354255893 0.52970799819851 0.4678497022695704 1.0000000180025095e-35 -0.45892247278353232 1.0535565862038851 -0.82221716540434853 -0.27087874497163
decision_type=2 2 2 2 2 2 2 2 2 2 2 2 2 2 2 2 2 2 2 2 2 2 2 2 2 2 2 2 2 2
left_child=1 3 4 8 7 11 12 -3 28 13 17 20 14 -6 -2 23 -8 -9 27 22 -4 -11 -10 24 -13 -12 -21 -5 -1 -20
right_child=6 2 5 18 9 -7 16 10 19 21 25 15 -14 -15 -16 -17 -18 -19 29 26 -22 -23 -24 -25 -26 -27 -28 -29 -30 -31
leaf_value=14340.515271091303 -27037.238514067001 18130.119880590661 37493.824248673431 -12673.139975450031 93416.973130458515 -23410.182160010194 -19912.082374187237 66776.58486482389 69352.788928865135 145566.59546874999 21126.654479399182 19197.994592757739 -32047.218138428725 162571.57487500002 13.351693677580759 100009.07908653846 5883.5603779091789 116799.67085731908 -27952.107330851166 54731.32405377012 102359.75110677084 238454.76813858698 13932.559631057704 31413.871678128449 1389.325539231414 50940.899027666863 20482.410598342485 54739.397011718749 -1066.1955924653496 -9522.0597441526315
leaf_weight=593 608 303 226 1235 229 916 471 728 38 40 126 762 3080 50 445 26 619 76 1731 264 36 23 421 276 629 609 111 20 1027 305
leaf_count=593 608 303 226 1235 229 916 471 728 38 40 126 762 3080 50 445 26 619 76 1731 264 36 23 421 276 629 609 111 20 1027 305
internal_value=0 11275.1 30659.7 -5781.25 62956.4 6091.28 -23142.8 52480.2 13297.7 119381 59243.1 19914 -27858.2 105810 -15605.6 15814.1 -5263 71505.1 -20007.9 30244.2 46406.7 179478 18520.7 14500.9 11145 45829.9 44593.6 -11598.8 4573.42 -25191.2
internal_weight=0 10800 5055 5745 2184 2871 5223 1842 2454 342 1539 1955 4133 279 1053 1693 1090 804 3291 834 262 63 459 1667 1391 735 375 1255 1620 2036
internal_count=16023 10800 5055 5745 2184 2871 5223 1842 2454 342 1539 1955 4133 279 1053 1693 1090 804 3291 834 262 63 459 1667 1391 735 375 1255 1620 2036
is_linear=0
shrinkage=0.1


Tree=5
num_leaves=31
num_cat=0
split_feature=0 2 3 0 2 3 3 6 2 2 2 3 0 2 2 2 3 6 5 2 5 5 0 2 5 3 3 5 2 4
split_gain=4.11979e+14 2.54539e+14 1.74514e+14 1.31167e+14 1.1445e+14 1.07339e+14 5.55573e+13 4.34362e+13 4.23578e+13 3.31372e+13 3.29732e+13 3.23588e+13 3.21018e+13 3.04746e+13 2.75246e+13 2.16638e+13 1.90667e+13 1.75737e+13 1.54612e+13 1.17863e+13 1.14843e+13 1.10691e+13 1.09559e+13 1.09491e+13 1.08107e+13 9.96067e+12 9.90234e+12 9.50098e+12 9.18848e+12 8.84232e+12
threshold=0.53219631597180694 0.0081707034432314477 -0.056636439219759464 1.0000000180025095e-35 0.074898300047054875 -0.056636439219759464 -0.17349587872077976 3.0087676553609293 0.89787199149421004 -0.4811650049848068 -0.43667994058225784 -0.29035531822180011 -1.5622258630188848 1.6392897315366923 -0.45892247278353232 -0.54047842418820535 1.3846299812928249 1.1342397781221514 -0.0069173846362645059 -0.97791489081326988 0.40890921072055203 0.74342892989028153 1.5794074054671532 -1.1113700840209164 0.11620445644703871 -0.58250391697435089 1.6183488602948655 0.24861851195172333 -1.2374110998281385 3.1104435636519985
decision_type=2 2 2 2 2 2 2 2 2 2 2 2 2 2 2 2 2 2 2 2 2 2 2 2 2 2 2 2 2 2
left_child=3 2 9 12 5 14 -3 10 16 25 18 -6 -1 20 23 -9 29 -7 -4 -14 -13 -12 -20 -5 -25 28 -10 -18 -2 -8
right_child=1 6 7 4 11 17 8 15 26 -11 21 13 19 -15 -16 -17 27 -19 22 -21 -22 -23 -24 24 -26 -27 -28 -29 -30 -31
leaf_value=-42295.307754947738 96757.868489583343 -15987.655830714088 58946.622982976471 29013.101702043125 -27374.568460889092 30049.66217109386 19556.37549026214 229647.99500679347 4177.5593355456986 2803.9817905460395 53152.282771889229 -3627.0567505408526 -9456.987722854532 -27167.949049290328 -13628.687436738102 119677.10455729168 38336.483267468364 85807.692386122886 96952.959832188906 -22372.88246032373 19408.93777075746 100380.57340262277 140703.87524350648 129.78961921012734 32367.150180288463 65362.380532226562 -23085.642555625767 82736.499686535506 28754.365605531606 81256.764583333337
leaf_weight=722 21 858 81 204 1291 1348 721 23 384 444 436 1161 921 543 1143 81 119 59 223 3034 266 56 77 938 117 120 204 81 369 24
leaf_count=722 21 858 81 204 1291 1348 721 23 384 444 436 1161 921 543 1143 81 119 59 223 3034 266 56 77 938 117 120 204 81 369 24
internal_value=0 26196.9 53201.2 -9913 -1318.48 10454 4387.83 82907.7 15791.7 22778.5 75630.1 -15069.3 -22904.9 -7005.3 -2393.93 143998 28903.7 32387.8 97714.9 -19365.2 666.969 58527.9 108182 7805.7 3704.93 40168.2 -5281.1 56318.5 32416.1 21544
internal_weight=0 4322 1931 11747 7070 3809 2391 977 1533 954 873 3261 4677 1970 2402 104 945 1407 381 3955 1427 492 300 1259 1055 510 588 200 390 745
internal_count=16069 4322 1931 11747 7070 3809 2391 977 1533 954 873 3261 4677 1970 2402 104 945 1407 381 3955 1427 492 300 1259 1055 510 588 200 390 745
is_linear=0
shrinkage=0.1


Tree=6
num_leaves=31
num_cat=0
split_feature=0 2 3 1 3 2 2 3 4 2 2 2 2 7 0 7 3 0 0 1 1 2 2 0 2 3 3 4 3 2
split_gain=3.33703e+14 2.06177e+14 1.41357e+14 1.36678e+14 9.73119e+13 9.49569e+13 5.39826e+13 4.50014e+13 3.56685e+13 3.43098e+13 3.18682e+13 3.09796e+13 2.68411e+13 2.01327e+13 1.90593e+13 1.4876e+13 2.5295e+13 1.40946e+13 1.38964e+13 1.25094e+13 1.1391e+13 1.0185e+13 1.00694e+13 9.77025e+12 8.42363e+12 8.06814e+12 8.02089e+12 7.88607e+12 7.87393e+12 7.83894e+12
threshold=0.53219631597180694 0.0081707034432314477 -0.056636439219759464 1.1493871794888573 -0.056636439219759464 0.030413235644505838 -0.43667994058225784 -0.17349587872077976 3.1104435636519985 0.89787199149421004 -0.43667994058225784 1.6392897315366923 -0.4811650049848068 -0.61818173256720377 1.0000000180025095e-35 -1.2316031835468557 1.3651534080426548 1.5794074054671532 1.0000000180025095e-35 1.0000000180025095e-35 1.0000000180025095e-35 -0.97791489081326988 -0.79997463320307405 -1.5622258630188848 -1.1113700840209164 -0.58250391697435089 1.6183488602948655 3.1104435636519985 -0.50459762397367058 0.44560717006829603
decision_type=2 2 2 2 2 2 2 2 2 2 2 2 2 2 2 2 2 2 2 2 2 2 2 2 2 2 2 2 2 2
left_child=3 2 12 4 6 18 19 -3 10 13 17 -7 25 29 23 16 -12 -4 -6 24 -20 -16 -19 -5 -1 -2 -11 -15 -26 -9
right_child=1 7 8 14 5 11 -8 9 -10 26 15 -13 -14 27 21 -17 -18 22 20 -21 -22 -23 -24 -25 28 -27 -28 -29 -30 -31
leaf_value=24033.927407795862 29174.483416763702 -14388.890195820328 81076.458724389493 -39636.164574242212 13826.596064470916 3898.0709267611819 -19586.599832257201 82741.388653146409 147394.57062251985 3759.8032479445137 141723.63602061171 -24569.05313368405 2523.5835873440583 17714.639263292884 16131.111653780346 44612.401505454465 46320.373121553312 173651.86572916666 39597.506656009842 -14245.088758583675 14716.290690546452 -16040.347427397121 102076.70132092928 -25794.925038451867 -1414.9845882206855 58826.142131347653 -20777.07895938649 74790.463625000004 16659.554613626413 37816.132082431286
leaf_weight=223 390 858 302 666 446 1286 2924 73 63 384 47 544 444 764 121 410 68 30 920 378 230 527 57 2177 986 120 204 25 319 83
leaf_count=223 390 858 302 666 446 1286 2924 73 63 384 47 544 444 764 121 410 68 30 920 378 230 527 57 2177 986 120 204 25 319 83
internal_value=0 23577.2 47881.1 -8921.7 -1907.53 10983.2 -11051.2 3949.05 74616.9 14212.6 69600.5 -4564.29 20500.7 26013.3 -25509.8 53527.4 85311.3 91293.1 28810.2 2043.1 34621.3 -10033 126758 -29037.4 6072.51 36151.3 -4752.99 19523.1 3003.24 58838.8
internal_weight=0 4322 1931 11747 8256 3426 4830 2391 977 1533 914 1830 954 945 3491 525 115 389 1596 1906 1150 648 87 2843 1528 510 588 789 1305 156
internal_count=16069 4322 1931 11747 8256 3426 4830 2391 977 1533 914 1830 954 945 3491 525 115 389 1596 1906 1150 648 87 2843 1528 510 588 789 1305 156
is_linear=0
shrinkage=0.1


Tree=7
num_leaves=31
num_cat=0
split_feature=0 1 3 6 3 3 3 0 4 5 3 5 6 3 1 6 3 3 3 3 3 3 3 0 6 3 3 3 3 3
split_gain=2.70299e+14 1.13742e+14 1.02749e+14 6.71114e+13 6.56987e+13 5.0152e+13 4.87697e+13 3.49743e+13 2.28021e+13 2.03942e+13 1.74445e+13 1.29293e+13 1.28724e+13 1.22473e+13 1.20143e+13 1.05629e+13 9.13846e+12 2.42337e+13 2.23139e+13 1.69426e+13 1.61513e+13 1.78209e+13 1.09256e+13 8.70139e+12 8.67406e+12 8.54793e+12 8.01174e+12 7.85223e+12 7.0881e+12 9.35313e+12
threshold=0.53219631597180694 1.0000000180025095e-35 -0.056636439219759464 3.0087676553609293 -0.056636439219759464 1.754684873046056 1.754684873046056 1.0000000180025095e-35 3.1104435636519985 1.8724329820881185 -0.037159865969589402 0.89442741423772887 1.8856794069778178 -0.056636439219759464 1.0000000180025095e-35 1.1931083204748993 0.66399677103653276 0.54713733153551236 1.2482939685416345 0.62504362453619255 0.37184817228398181 0.21603558628262134 1.4041065545429949 -1.5622258630188848 -0.47280591462671528 0.31341845253347167 1.6767785800453756 1.7157317265457157 0.74190306403721296 1.2482939685416345
decision_type=2 2 2 2 2 2 2 2 2 2 2 2 2 2 2 2 2 2 2 2 2 2 2 2 2 2 2 2 2 2
left_child=1 4 12 5 -1 8 15 23 9 10 -4 -5 -2 -9 16 24 17 20 -18 -19 21 -12 -20 -3 -6 -23 -24 28 -26 -30
right_child=2 7 3 11 6 -7 -8 13 -10 -11 14 -13 -14 -15 -16 -17 18 19 22 -21 -22 25 26 -25 27 -27 -28 -29 29 -31
leaf_value=-7853.3084731111267 552.41908926834151 -35582.399841794002 86610.798915318097 80584.483127992702 -1284.4125572659677 -19143.649434897536 -30702.187388679915 -16617.197244301871 95675.450875595867 130644.4717075893 26672.725056999778 151329.79904233871 27117.423662407109 765.44207847459791 7762.6405815972221 55664.634287701236 9770.8973497054158 146040.07152217743 61252.206717557681 59539.649986485078 2520.3084719469953 78433.702994068284 16250.293688964844 -22885.056148434811 21620.147560479654 39969.296737701115 52482.296565408913 45378.344443102389 -859.22708529485192 18415.893112864382
leaf_weight=4015 1655 679 56 155 285 191 243 779 59 21 363 31 205 845 216 66 442 31 172 84 137 135 174 2631 1085 101 94 95 446 578
leaf_count=4015 1655 679 56 155 285 191 243 779 59 21 363 31 205 845 216 66 442 31 172 84 137 135 174 2631 1085 101 94 95 446 578
internal_value=0 -8029.53 21219.5 34621.1 344.359 29901.3 12107.6 -19592.4 34394.2 32609.6 31582.8 92375.4 3480.28 -7572.66 30001.7 16179.2 32773.5 40166.3 25640.6 82857.2 33495.8 40580.4 41582.4 -25489.7 15132.1 61972.2 28958.5 17255 15988.2 10020.7
internal_weight=0 11747 4322 2462 6813 2276 2798 4934 2085 2026 2005 186 1860 1624 1949 2555 1733 851 882 115 736 599 440 3310 2489 236 268 2204 2109 1024
internal_count=16069 11747 4322 2462 6813 2276 2798 4934 2085 2026 2005 186 1860 1624 1949 2555 1733 851 882 115 736 599 440 3310 2489 236 268 2204 2109 1024
is_linear=0
shrinkage=0.1


Tree=8
num_leaves=31
num_cat=0
split_feature=4 7 2 5 2 4 3 6 2 5 3 3 3 5 6 5 3 5 6 7 3 7 3 4 4 5 2 5 5 6
split_gain=1.91555e+14 9.57989e+13 4.74141e+13 4.21059e+13 3.85949e+13 5.19133e+13 4.20018e+13 3.65255e+13 3.22356e+13 2.85108e+13 2.16444e+13 2.1161e+13 2.05606e+13 1.99579e+13 1.96532e+13 1.94985e+13 1.85439e+13 1.85118e+13 1.32208e+13 1.18772e+13 1.14169e+13 1.08083e+13 1.05367e+13 1.04264e+13 9.3737e+12 9.14053e+12 8.49022e+12 8.65592e+12 7.13744e+12 7.11295e+12
threshold=1.5943784676111423 -1.1293662750502471 -0.12528448976441536 0.24397240474103263 -0.43667994058225784 1.0000000180025095e-35 -0.17349587872077976 3.4767210921872249 1.6392897315366923 -0.97330768445992732 -0.056636439219759464 -0.3682616112224803 -0.056636439219759464 -0.68292598379175939 1.2492627328940551 0.78292084118115246 0.29394187928330157 0.079035598761513212 -0.13962306760639245 1.2220826203717523 0.040746427031090819 -0.9248924580570298 0.54713733153551236 1.0000000180025095e-35 3.1104435636519985 -0.68292598379175939 0.36405121866362306 -0.5528349818924202 0.83170496689340467 -1.2776858259679447
decision_type=2 2 2 2 2 2 2 2 2 2 2 2 2 2 2 2 2 2 2 2 2 2 2 2 2 2 2 2 2 2
left_child=1 3 7 12 5 9 26 11 17 -3 -5 -2 -1 -14 18 24 -9 25 -7 -16 -4 -22 -20 -12 -13 -8 27 -6 -25 -11
right_child=2 4 20 10 6 14 8 16 -10 29 23 15 13 -15 19 -17 -18 -19 22 -21 21 -23 -24 28 -26 -27 -28 -29 -30 -31
leaf_value=-9239.4297911680605 24240.485778882576 -24437.060522846426 -1746.6662950897219 7836.8616586755179 -28977.861244401385 -5869.0297879078353 -22923.30412248884 94563.900462372461 -19656.488138960569 -23261.316386445586 28929.454077620074 52381.440940834611 -11795.561605541088 18312.149542330979 41019.381493150868 148730.15668247768 203407.90326086956 12094.599501205159 13912.662631796851 120743.32896875002 60150.726566792582 20480.463174220495 39663.344846021078 50007.017950285583 108376.57098214288 -1737.5437571546527 -25001.046493871356 -12593.380652554953 89128.432953933196 -395.43246709335176
leaf_weight=599 165 665 160 218 382 244 238 49 937 143 220 205 270 1193 74 28 23 1070 609 25 91 280 215 238 35 1411 1360 2068 58 2796
leaf_count=599 165 665 160 218 382 244 238 49 937 143 220 205 270 1193 74 28 23 1070 609 25 91 280 215 238 35 1411 1360 2068 58 2796
internal_value=0 -3012.53 41444.3 13687.8 -6828.36 196.974 -11317.8 63381.2 -3660.92 -5738.8 34256.2 52414.5 6366.23 12755.7 18528.2 69760.5 129334 1851.34 14577.1 61151.7 20581.5 30210.9 20631.6 45417.8 60547.4 -4795.28 -18665.1 -15148 57672.7 -1508
internal_weight=0 15033 1036 2796 12237 4771 7466 505 3656 3604 734 433 2062 1463 1167 268 72 2719 1068 99 531 371 824 516 240 1649 3810 2450 296 2939
internal_count=16069 15033 1036 2796 12237 4771 7466 505 3656 3604 734 433 2062 1463 1167 268 72 2719 1068 99 531 371 824 516 240 1649 3810 2450 296 2939
is_linear=0
shrinkage=0.1


Tree=9
num_leaves=31
num_cat=0
split_feature=1 2 3 0 3 2 0 2 6 0 2 4 3 2 3 3 0 0 3 2 3 3 2 2 0 3 3 3 3 2
split_gain=1.95697e+14 1.59131e+14 1.55201e+14 6.01771e+13 4.45547e+13 3.67711e+13 3.40357e+13 2.91334e+13 2.45597e+13 2.3993e+13 1.75412e+13 1.19814e+13 1.14504e+13 9.57525e+12 9.02791e+12 2.4186e+13 8.62408e+12 8.58002e+12 8.31525e+12 7.6033e+12 7.23745e+12 7.11034e+12 7.01192e+12 6.92951e+12 6.55029e+12 6.10996e+12 9.44605e+12 7.32683e+12 5.98872e+12 5.97201e+12
threshold=1.0000000180025095e-35 0.074898300047054875 -0.056636439219759464 0.53219631597180694 -0.29035531822180011 1.5206628931298953 1.0000000180025095e-35 -0.4811650049848068 4.2254465911092991 0.53219631597180694 -0.43667994058225784 1.5943784676111423 -0.037159865969589402 -1.2374110998281385 1.3456768347924848 1.3651534080426548 1.5794074054671532 1.0000000180025095e-35 -0.58250391697435089 -1.2374110998281385 0.040746427031090819 -0.52407419722384063 -1.1113700840209164 0.030413235644505838 -1.5622258630188848 0.21603558628262134 0.62504362453619255 0.29394187928330157 -0.27087874497163 0.89787199149421004
decision_type=2 2 2 2 2 2 2 2 2 2 2 2 2 2 2 2 2 2 2 2 2 2 2 2 2 2 2 2 2 2
left_child=1 2 7 17 -3 11 24 9 10 18 16 20 13 -8 -12 -16 25 -4 22 -11 -6 -21 -1 -14 -2 -5 27 -27 -9 -22
right_child=6 4 3 8 5 -7 12 28 -10 19 14 -13 23 -15 15 -17 -18 -19 -20 21 29 -23 -24 -25 -26 26 -28 -29 -30 -31
leaf_value=28898.702854003841 -30902.059979418842 -17454.60272910606 12782.729027981661 38345.635223156896 -6717.8884160156249 -14938.159070678979 20651.898308171454 -6030.739001174954 132682.39747023812 89494.416041100558 34743.12106304169 29770.501038095903 10621.584790976573 -16917.245885930908 124911.76341579862 36901.367506797644 96648.466526285803 30316.216040398096 19501.37441416243 23568.906970745586 12300.252786494957 53075.077407066856 -409.39968753371534 -5741.3463387454367 -19885.423724016098 70973.934184966216 47963.699242665818 122877.92963299419 17272.044758362328 -2659.1800741161824
leaf_weight=90 679 1917 392 79 350 914 74 1506 42 23 388 245 472 815 45 102 96 969 397 345 1268 107 878 573 2631 74 98 43 119 338
leaf_count=90 679 1917 392 79 350 914 74 1506 42 23 388 245 472 815 45 102 96 969 397 345 1268 107 878 573 2631 74 98 43 119 338
internal_value=0 7549.26 18849.3 38818.3 -5459.76 1921.97 -15987.2 5432.97 57892.2 14050.1 54496.3 8923.41 -5447.63 -13790 42738.9 63843.3 70625.2 25266.2 7313.9 33407.7 6312.2 30553.8 2315.53 1649.37 -22145.3 62127.8 70866.3 90049.8 -4324.26 9151.88
internal_weight=0 10825 5793 2328 5032 3115 5244 3465 967 1840 925 2201 1934 889 535 147 390 1361 1365 475 1956 452 968 1045 3310 294 215 117 1625 1606
internal_count=16069 10825 5793 2328 5032 3115 5244 3465 967 1840 925 2201 1934 889 535 147 390 1361 1365 475 1956 452 968 1045 3310 294 215 117 1625 1606
is_linear=0
shrinkage=0.1


Tree=10
num_leaves=31
num_cat=0
split_feature=1 2 3 3 4 2 2 5 2 5 1 5 5 3 3 3 3 3 7 3 4 5 4 3 2 3 3 2 2 4
split_gain=1.69625e+14 1.40109e+14 1.3866e+14 3.77942e+13 3.59532e+13 3.55066e+13 2.12938e+13 1.81325e+13 1.84573e+13 1.73894e+13 1.4484e+13 1.40444e+13 1.2476e+13 1.18075e+13 1.1688e+13 1.10386e+13 2.43064e+13 1.01894e+13 9.78581e+12 7.83498e+12 7.49098e+12 7.26208e+12 7.24803e+12 7.18567e+12 6.53456e+12 6.44554e+12 6.363e+12 7.21564e+12 5.96814e+12 5.24746e+12
threshold=1.0000000180025095e-35 0.074898300047054875 -0.056636439219759464 -0.17349587872077976 1.5943784676111423 0.89787199149421004 -0.4811650049848068 -0.027824867084372595 -0.33288145697631039 0.10226613481496666 1.1493871794888573 0.7318136618635549 0.43213974677400552 -0.037159865969589402 0.60556705128602251 0.62504362453619255 0.29394187928330157 1.3846299812928249 -0.61818173256720377 -1.4005199934814931 3.1104435636519985 0.9246271111072184 1.5943784676111423 1.5599191405443553 -1.0149857778153939 1.5014894207938452 0.21603558628262134 -0.77773210100179957 -0.15494119936611456 1.0000000180025095e-35
decision_type=2 2 2 2 2 2 2 2 2 2 2 2 2 2 2 2 2 2 2 2 2 2 2 2 2 2 2 2 2 2
left_child=1 2 6 -3 7 17 9 29 15 19 13 20 -8 -2 -13 16 24 21 -10 -1 26 -5 -19 25 -9 -7 -6 -28 -14 -4
right_child=10 3 4 5 11 23 12 8 18 -11 -12 14 28 -15 -16 -17 -18 22 -20 -21 -22 -23 -24 -25 -26 -27 27 -29 -30 -31
leaf_value=-4422.3324949658609 -14917.757190232169 -14738.238140053862 10748.797023878833 7438.2068710032172 20609.178873146186 -7334.8229701158189 -6536.4888994834719 4206.5762291217679 38161.325100727263 36153.065505186838 -18272.417138597037 77189.843089657748 38125.239235160283 1543.6219026613985 167165.25223721593 32242.45419226279 112858.20609516346 23310.68355136719 14999.309602116791 12322.167185866028 91352.559175857852 43419.808307402011 66906.4932638889 -18191.056901138822 54302.036509459256 16660.218744075999 101507.58080444337 49350.012076927931 2572.694746179166 27968.230433409895
leaf_weight=363 921 2201 390 1138 59 633 1414 29 426 265 3507 42 97 827 22 179 76 250 319 1214 51 59 45 534 255 136 32 155 92 324
leaf_count=363 921 2201 390 1138 59 633 1414 29 426 265 3507 42 97 827 22 179 76 250 319 1214 51 59 45 534 255 136 32 155 92 324
internal_value=0 7339.48 17906.9 -4936.98 36585.4 2781.3 5116.58 31337.8 38441.7 12450.8 -14565.9 65628.9 -3311.14 -7129.68 108119 52537.4 62628.4 13314.3 28243.6 8467.85 56472.8 9211.74 29960.9 -9279.49 49186.7 -3091.23 49241.6 58275.4 20819.2 18562.7
internal_weight=0 10800 5804 4996 2359 2795 3445 1998 1284 1842 5255 361 1603 1748 64 539 360 1492 745 1577 297 1197 295 1303 284 769 246 187 189 714
internal_count=16055 10800 5804 4996 2359 2795 3445 1998 1284 1842 5255 361 1603 1748 64 539 360 1492 745 1577 297 1197 295 1303 284 769 246 187 189 714
is_linear=0
shrinkage=0.1


Tree=11
num_leaves=31
num_cat=0
split_feature=4 7 5 4 2 4 3 5 2 2 3 6 5 2 6 3 3 5 7 4 6 3 3 5 5 5 5 5 6 5
split_gain=1.14638e+14 6.24114e+13 2.92553e+13 2.85517e+13 2.53696e+13 3.18765e+13 2.20365e+13 1.75196e+13 1.65066e+13 1.41276e+13 1.58019e+13 1.31665e+13 1.27778e+13 1.2761e+13 1.26461e+13 1.16452e+13 1.07186e+13 1.1292e+13 1.02379e+13 9.6284e+12 7.82694e+12 7.53705e+12 6.86853e+12 6.75195e+12 6.24829e+12 6.02199e+12 5.88195e+12 5.86562e+12 1.003e+13 5.59887e+12
threshold=1.5943784676111423 -1.1293662750502471 0.24397240474103263 3.1104435636519985 -0.43667994058225784 1.0000000180025095e-35 0.040746427031090819 -1.0011843277240715 0.82373021748996178 0.0081707034432314477 0.21603558628262134 1.1743901830018475 -0.39486733672893681 -0.065971070561016754 3.6264661919716397 -0.056636439219759464 -0.056636439219759464 -0.68292598379175939 1.2220826203717523 1.0000000180025095e-35 -0.13962306760639245 0.54713733153551236 1.7157317265457157 -0.44365146244118903 0.21377270787154315 0.68535258975664803 1.6308354071322031 0.52970799819851 0.013865659672632721 0.33224844174415574
decision_type=2 2 2 2 2 2 2 2 2 2 2 2 2 2 2 2 2 2 2 2 2 2 2 2 2 2 2 2 2 2
left_child=1 2 16 9 5 7 24 -3 12 10 23 20 -8 25 27 -4 -1 -18 -13 26 -7 -22 -9 -2 -6 -5 -17 -12 -29 -14
right_child=3 4 15 13 6 11 8 22 -10 -11 14 18 29 -15 -16 19 17 -19 -20 -21 21 -23 -24 -25 -26 -27 -28 28 -30 -31
leaf_value=-5689.3803496260398 -9882.2078061860193 -19018.057148134692 8719.2610298726104 82540.766109525241 -16294.961261626835 -3965.8663959960941 -14076.92517100941 -1934.2597793244372 -11422.57820274671 11432.300119365525 37911.070568923009 30561.740232691274 2373.1215522050088 39193.677967180527 119917.76901584203 26194.832499231918 -8132.4995812457537 14310.829005678776 101050.0691550926 48435.739987862471 10532.157712885626 32729.625737670311 20235.55098519877 28435.821704321512 -6904.1615780477096 142264.07412500001 -28614.478515625 117173.43002319336 29074.993131510419 14732.820781835166
leaf_weight=608 58 645 201 52 2935 250 385 2832 1440 387 162 87 1236 56 27 178 276 1194 27 303 586 207 147 222 934 25 22 28 24 521
leaf_count=608 58 645 201 52 2935 250 385 2832 1440 387 162 87 1236 56 27 178 276 1194 27 303 586 207 147 222 934 25 22 28 24 521
internal_value=0 -2072.42 11446.9 32243.5 -5147.2 538.128 -8795.24 -4075.56 -3143.26 25905.2 36655.7 14989.3 2422.67 75515.5 55427.5 29065 5478.06 10097 47256.3 37195.2 11462.5 16326.5 -840.281 20498.5 -14028 101931 20165.8 47290.9 76512.6 6038.12
internal_weight=0 15014 2782 1041 12232 4781 7451 3624 3582 908 521 1157 2142 133 241 704 2078 1470 114 503 1043 793 2979 280 3869 77 200 214 52 1757
internal_count=16055 15014 2782 1041 12232 4781 7451 3624 3582 908 521 1157 2142 133 241 704 2078 1470 114 503 1043 793 2979 280 3869 77 200 214 52 1757
is_linear=0
shrinkage=0.1


Tree=12
num_leaves=31
num_cat=0
split_feature=1 2 3 3 6 2 2 2 4 3 1 6 6 2 2 3 3 2 7 3 7 3 6 2 2 3 6 4 6 3
split_gain=1.28898e+14 1.00203e+14 9.39423e+13 2.63679e+13 2.41052e+13 2.02187e+13 1.85948e+13 1.48061e+13 1.30702e+13 1.13137e+13 1.09198e+13 1.03805e+13 1.02006e+13 9.36048e+12 1.08243e+13 1.1706e+13 1.7892e+13 1.03039e+13 8.29052e+12 8.14203e+12 7.06133e+12 1.24383e+13 6.06793e+12 5.59334e+12 5.03949e+12 4.80936e+12 4.69437e+12 4.39714e+12 4.33891e+12 3.87578e+12
threshold=1.0000000180025095e-35 0.074898300047054875 -0.056636439219759464 -0.29035531822180011 3.4767210921872249 1.7356740377422151 -0.5849634885907542 -0.4811650049848068 3.1104435636519985 -0.52407419722384063 1.1493871794888573 -0.36049708978840422 2.0541426442352848 -0.33288145697631039 -1.2967245190315371 0.62504362453619255 0.29394187928330157 -1.1780976806247399 0.40418735239888282 -0.21244902522111989 -1.2316031835468557 1.3651534080426548 1.3211403807905742 0.44560717006829603 -0.51082171458650605 1.0000000180025095e-35 1.1342397781221514 1.5943784676111423 1.735934307193403 1.443059701043335
decision_type=2 2 2 2 2 2 2 2 2 2 2 2 2 2 2 2 2 2 2 2 2 2 2 2 2 2 2 2 2 2
left_child=1 2 7 -3 8 12 -6 9 11 18 19 -4 23 14 -13 16 -16 -17 24 -2 21 -15 -9 -5 -1 -22 -20 -11 -21 -25
right_child=10 3 4 5 6 -7 -8 22 -10 27 -12 13 -14 20 15 17 -18 -19 26 28 25 -23 -24 29 -26 -27 -28 -29 -30 -31
leaf_value=-4290.7924985130367 -12952.186306856136 -13264.154550079395 6608.7038718457497 10208.422934681575 166178.45492187503 -12668.519116563695 57183.066867319743 -3809.6510329169796 86052.843793820124 22662.719643316505 -15926.192984267564 10030.560825943772 30869.706100094547 66342.551095448362 38635.348802704175 74694.819655106709 79806.479637998389 21778.337319240731 11526.758963417607 -453.71637828042071 50175.442407226568 16617.671048001128 21749.440079999215 -2822.6883517603974 29720.784499667556 16089.673190809697 43219.62179394532 67596.509799592401 44536.622922585229 11038.708352108453
leaf_weight=596 890 1901 212 960 20 744 72 1504 39 410 3507 137 157 92 388 41 145 359 716 836 44 111 99 980 47 699 50 23 22 254
leaf_count=596 890 1901 212 960 20 744 72 1504 39 410 3507 137 157 92 388 41 145 359 716 836 44 111 99 980 47 699 50 23 22 254
internal_value=0 6387.52 15324.2 -3994.46 30698.6 1699.14 80877.7 4796.41 28662.2 10912.1 -12707.9 27657.6 6245.95 29871 36278.1 40132.2 49835.8 27202.3 6567.57 -6251.11 22624.2 39153.1 -2231.14 4483.9 -1804.72 18108.2 13595.5 25049.5 699.882 30.4679
internal_weight=0 10800 5804 4996 2359 3095 92 3445 2267 1842 5255 2228 2351 2016 1070 933 533 400 1409 1748 946 203 1603 2194 643 743 766 433 858 1234
internal_count=16055 10800 5804 4996 2359 3095 92 3445 2267 1842 5255 2228 2351 2016 1070 933 533 400 1409 1748 946 203 1603 2194 643 743 766 433 858 1234
is_linear=0
shrinkage=0.1


Tree=13
num_leaves=31
num_cat=0
split_feature=0 2 1 2 7 7 2 2 5 0 7 7 7 6 5 5 5 2 6 2 2 2 2 2 7 5 5 5 2 0
split_gain=1.22489e+14 7.09237e+13 4.27375e+13 3.38441e+13 2.49152e+13 3.22728e+13 1.78896e+13 1.62243e+13 1.53373e+13 1.5151e+13 1.39848e+13 1.34677e+13 1.08028e+13 8.78901e+12 8.03171e+12 8.00221e+12 7.90978e+12 7.74195e+12 7.66048e+12 7.28312e+12 7.27103e+12 7.1863e+12 7.18381e+12 6.90926e+12 6.89689e+12 6.62751e+12 6.21905e+12 6.17475e+12 5.86392e+12 4.82087e+12
threshold=0.53219631597180694 -0.12528448976441536 1.0000000180025095e-35 0.09714083224832927 1.3243195288683609 -1.1293662750502471 -0.14011284456526496 -1.1484409710230405 0.60172265996421559 1.0000000180025095e-35 -1.1293662750502471 1.2220826203717523 -1.3338400920434645 0.68771860870249946 -0.095193421639387557 3.3847408791679379 -0.5528349818924202 -0.6146201981924535 -0.47280591462671528 0.44560717006829603 -1.0298141326162433 -0.45892247278353232 -0.59979184339160385 -1.1484409710230405 -1.1293662750502471 0.46466249724884029 0.75504419791700828 -0.72474094868797556 -1.4153513574383341 -1.5622258630188848
decision_type=2 2 2 2 2 2 2 2 2 2 2 2 2 2 2 2 2 2 2 2 2 2 2 2 2 2 2 2 2 2
left_child=2 4 3 8 5 6 14 16 11 29 12 18 -3 27 -2 19 -7 -16 -1 -12 -6 26 -22 -20 -25 -5 -9 -13 -11 -4
right_child=1 10 9 25 20 7 -8 21 -10 28 15 13 -14 -15 17 -17 -18 -19 23 -21 22 -23 -24 24 -26 -27 -28 -29 -30 -31
leaf_value=-8738.2020542522059 4377.6149884259266 794.62242257254468 -23565.952034849739 -10555.042753956383 35465.099999999999 26869.812670898438 117903.37401542664 16687.479175246219 33675.739195194954 45848.951052989134 7370.1853620851398 3242.4286499023438 32957.114231187021 74674.592664930547 73346.29944525825 64320.825312500005 95657.501651785715 39887.760337510226 24200.539160156251 -4227.3222841317574 126194.53941200658 -90.402752001532193 62922.423943014714 12257.606276585313 83.939745078570255 2723.7106637293327 69943.990068783969 25385.829446269665 -5007.5778133485846 -14151.879226217336
leaf_weight=546 54 168 685 2362 27 32 32 470 189 23 953 216 276 27 81 20 35 473 163 1254 38 319 34 610 1963 447 23 302 1591 2642
leaf_count=546 54 168 685 2362 27 32 32 470 189 23 953 216 276 27 81 20 35 473 163 1254 38 319 34 610 1963 447 23 302 1591 2642
internal_value=0 14590.6 -5149.98 -22.0008 31112.7 27944.8 45027 15507.2 5867.37 -12233.2 4582.1 4494.03 20787.5 19051.6 41191.4 1351.21 62803.7 44779.7 2076.64 780.573 79720.3 11604.7 96316 4234.87 2970.04 -8441.98 19172.1 16152.3 -4282.86 -16090.2
internal_weight=0 4289 11766 6825 1618 1519 640 879 4016 4941 2671 3827 444 545 608 2227 67 554 3282 2207 99 812 72 2736 2573 2809 493 518 1614 3327
internal_count=16055 4289 11766 6825 1618 1519 640 879 4016 4941 2671 3827 444 545 608 2227 67 554 3282 2207 99 812 72 2736 2573 2809 493 518 1614 3327
is_linear=0
shrinkage=0.1


Tree=14
num_leaves=31
num_cat=0
split_feature=1 2 3 3 2 5 5 2 5 2 6 3 5 2 3 1 7 7 5 7 7 3 2 7 7 3 2 5 3 5
split_gain=8.57312e+13 6.59439e+13 6.43882e+13 2.09885e+13 1.97965e+13 1.93747e+13 1.39848e+13 1.1852e+13 1.10248e+13 1.28491e+13 1.25068e+13 8.17655e+12 7.69045e+12 7.67907e+12 7.18803e+12 7.44655e+12 6.9635e+12 1.03815e+13 7.94923e+12 6.8223e+12 6.81582e+12 7.78764e+12 6.68659e+12 6.10956e+12 5.65992e+12 5.09959e+12 4.98588e+12 4.67848e+12 4.26147e+12 4.23325e+12
threshold=1.0000000180025095e-35 0.074898300047054875 -0.056636439219759464 -0.17349587872077976 0.89787199149421004 0.62495319601766908 0.67606037533526664 -0.4811650049848068 -0.11610090408749564 -0.74807539140010026 2.1102970566544399 -0.52407419722384063 0.98038039763550666 -1.2596536320294127 -0.27087874497163 1.1493871794888573 1.3243195288683609 -0.61818173256720377 1.6308354071322031 -0.61818173256720377 1.3243195288683609 0.60556705128602251 -1.2225827450272888 0.40418735239888282 -0.61818173256720377 1.6183488602948655 -0.33288145697631039 -0.11610090408749564 0.33289502578364172 -0.15094670816767577
decision_type=2 2 2 2 2 2 2 2 2 2 2 2 2 2 2 2 2 2 2 2 2 2 2 2 2 2 2 2 2 2
left_child=1 2 6 -3 12 8 7 11 -4 10 13 23 24 -10 22 -16 17 18 26 -11 -15 -22 -2 -1 -5 -6 -7 -9 -21 -26
right_child=14 3 5 4 25 16 -8 27 9 19 -12 -13 -14 20 15 -17 -18 -19 -20 28 21 -23 -24 -25 29 -27 -28 -29 -30 -31
leaf_value=-3017.2343374131601 -1584.5965384710403 -10517.711249536691 12305.162894109259 23574.510432965417 -1969.9415441859448 68670.261447010867 35170.090021829048 -14957.822340295566 1745.7556986490888 28858.842931957042 121086.55825892858 20137.726939352222 46425.897995476975 38051.098510901757 523.66808763139704 -10394.82527361103 97866.938351004472 45.493915085565476 112980.66175595239 -4288.8931730253198 125149.16506569603 46818.335751953127 -16867.905195357314 10358.0623165413 -13329.478912534811 -15169.272029182504 34000.35749230018 -1229.7600207628411 18604.25106126384 8054.4240934959616
leaf_weight=632 336 2201 755 224 859 69 136 313 42 657 21 421 57 153 890 2095 28 42 21 111 22 30 1934 743 101 444 104 1200 304 1110
leaf_count=632 336 2201 755 224 859 69 136 313 42 657 21 421 57 153 890 2095 28 42 21 111 22 30 1934 743 101 444 104 1200 304 1110
internal_value=0 5208.53 12458.3 -3213.71 2538.02 25186.6 3742.45 2450.78 21969.5 27414.7 46999.2 7943.84 10402.9 40700.3 -10364.6 -7139.4 50716.2 45122 54880.8 22518.5 48681.2 79958.3 -14605.7 4210.29 8972 -6467.64 47828.2 -4069.74 12481 6270.96
internal_weight=0 10800 5804 4996 2795 2359 3445 3309 2095 1340 268 1796 1492 247 5255 2985 264 236 194 1072 205 52 2270 1375 1435 1303 173 1513 415 1211
internal_count=16055 10800 5804 4996 2795 2359 3445 3309 2095 1340 268 1796 1492 247 5255 2985 264 236 194 1072 205 52 2270 1375 1435 1303 173 1513 415 1211
is_linear=0
shrinkage=0.1


Tree=15
num_leaves=31
num_cat=0
split_feature=0 2 0 2 3 3 2 7 0 2 2 3 3 5 0 2 5 3 2 5 3 2 5 5 5 3 2 3 5 2
split_gain=8.26106e+13 4.52967e+13 3.21041e+13 2.93819e+13 2.62009e+13 1.57265e+13 1.33451e+13 1.22032e+13 1.13897e+13 1.09848e+13 1.05728e+13 1.39956e+13 9.89186e+12 9.52078e+12 5.97103e+12 5.28386e+12 5.96825e+12 5.2531e+12 4.77669e+12 4.49434e+12 4.46112e+12 4.40254e+12 4.73626e+12 4.64119e+12 4.25185e+12 4.03083e+12 4.0295e+12 3.8834e+12 3.8081e+12 3.72902e+12
threshold=0.53219631597180694 -0.12528448976441536 1.0000000180025095e-35 -0.43667994058225784 0.21603558628262134 0.040746427031090819 -0.14011284456526496 1.3243195288683609 1.5794074054671532 1.6392897315366923 0.44560717006829603 -0.27087874497163 0.21603558628262134 1.4473141723099208 -1.5622258630188848 -1.1780976806247399 0.64121457125508652 1.3456768347924848 -0.97791489081326988 0.78292084118115246 1.3456768347924848 -1.4153513574383341 -0.35537542543806599 0.1835730110020537 0.49253914051298442 1.3651534080426548 -0.73324703659925061 1.3651534080426548 -0.84553973616593348 -1.1113700840209164
decision_type=2 2 2 2 2 2 2 2 2 2 2 2 2 2 2 2 2 2 2 2 2 2 2 2 2 2 2 2 2 2
left_child=2 4 14 12 8 -3 7 15 19 13 11 -5 21 20 -1 -6 -17 -13 -16 29 -7 22 -4 -23 -12 -22 -10 -19 -14 -2
right_child=1 5 3 10 6 9 -8 -9 26 -11 24 17 28 -15 18 16 -18 27 -20 -21 25 23 -24 -25 -26 -27 -28 -29 -30 -31
leaf_value=-19158.961461537678 34058.260507812505 -6019.4043193304951 5321.0432968750001 -6724.1778288463311 82686.334970238095 9088.6070908744678 112860.77453703704 80330.320411265988 60085.888731166291 -5445.6249432440309 -11913.314798470223 3671.3224593679829 2383.5128734546702 76658.718035888669 -3097.4340884415396 25724.327782507789 60622.440058425374 37120.537768260539 -11211.609189343651 43938.08303520389 60039.73403695914 2873.3677787620086 68199.907846467395 21396.795900227866 1644.3471702689558 19268.579840613471 29111.638285993962 11587.689305020736 24736.77401293529 8189.5869849436731
leaf_weight=720 60 998 25 1673 21 866 27 66 56 363 1690 1049 91 24 955 316 58 83 3019 41 26 1377 23 150 268 360 168 211 469 782
leaf_count=720 60 998 25 1673 21 866 27 66 56 363 1690 1049 91 24 955 316 58 83 3019 41 26 1377 23 150 268 360 168 211 469 782
internal_value=0 11923.3 -4361.54 -123.635 25225.8 3877.19 44529.6 40527.6 16716.2 9903.3 -4335.57 -620.797 9689.09 14269.8 -10779.8 33877 31136.3 6982.3 -9261.68 11607.3 13073.8 5630.33 35450.5 4692.96 -10057.6 22014.8 36855.2 18795.9 21104.4 10033
internal_weight=0 4232 11803 7109 1595 2637 488 461 1107 1639 4974 3016 2135 1276 4694 395 374 1343 3974 883 1252 1575 48 1527 1958 386 224 294 560 842
internal_count=16035 4232 11803 7109 1595 2637 488 461 1107 1639 4974 3016 2135 1276 4694 395 374 1343 3974 883 1252 1575 48 1527 1958 386 224 294 560 842
is_linear=0
shrinkage=0.1


Tree=16
num_leaves=31
num_cat=0
split_feature=1 2 3 5 2 5 3 3 5 4 4 5 5 2 5 4 2 5 3 2 4 4 5 3 7 2 4 3 7 3
split_gain=5.23445e+13 4.27409e+13 4.77082e+13 1.87709e+13 1.42348e+13 1.90721e+13 9.89495e+12 1.01245e+13 7.19925e+12 6.88912e+12 6.77571e+12 6.04466e+12 5.64653e+12 8.82629e+12 6.29339e+12 5.05959e+12 5.03689e+12 4.87783e+12 4.86451e+12 4.74575e+12 4.66936e+12 4.45085e+12 4.26136e+12 4.23371e+12 4.88085e+12 3.93081e+12 3.78417e+12 3.67558e+12 3.60691e+12 4.77867e+12
threshold=1.0000000180025095e-35 0.36405121866362306 0.21603558628262134 0.52970799819851 -0.14011284456526496 0.42981669316866017 -0.21244902522111989 1.5793957137945254 -0.018532652662991221 1.5943784676111423 1.0000000180025095e-35 1.3799456177549059 -0.87341637943007755 -0.74807539140010026 -0.18579251224785595 1.5943784676111423 -0.83704552020519818 -0.58071162515656427 -0.037159865969589402 -1.1113700840209164 1.0000000180025095e-35 1.5943784676111423 0.8526124493415127 1.4820128475436751 0.097476626909056757 0.89787199149421004 3.1104435636519985 0.6445201977863626 1.2220826203717523 1.7157317265457157
decision_type=2 2 2 2 2 2 2 2 2 2 2 2 2 2 2 2 2 2 2 2 2 2 2 2 2 2 2 2 2 2
left_child=1 2 4 12 5 8 -3 11 16 27 -2 23 -4 20 -15 -10 17 -1 21 -19 -14 -7 -11 24 -8 -13 -16 -5 -22 -30
right_child=10 6 3 9 -6 18 7 -9 15 22 -12 25 13 14 26 -17 -18 19 -20 -21 28 -23 -24 -25 -26 -27 -28 -29 29 -31
leaf_value=4.3769594484621344 -10138.252644283257 -11839.274049204734 -3831.1591697758081 49593.411025291985 -4490.035656638559 31178.635655361079 -5833.4807414134348 -13039.572350030496 7644.8043169936564 52743.022313262198 -1264.0206196354197 66461.247098707114 22450.450670732771 1142.2099854211845 17427.228371737026 29867.779389637442 -5343.2598594733645 49276.500697326665 12217.3289986446 11344.02946089075 28571.331364344347 68588.860937500009 103351.98937465122 16015.849136900506 5320.4972598810746 13243.39486607143 55329.915487557875 21588.817075716514 45095.654665798618 98348.14652876422
leaf_weight=444 4127 1312 117 99 1664 195 768 538 1330 41 1087 23 224 263 1079 111 896 40 116 188 79 38 28 181 802 35 27 89 72 22
leaf_count=444 4127 1312 117 99 1664 195 768 538 1330 41 1087 23 224 263 1079 111 896 40 116 188 79 38 28 181 802 35 27 89 72 22
internal_value=0 3908.75 8400.88 20903.8 3073.09 6820.86 -4883.98 -995.896 4254.25 46254.8 -8288.18 2585.92 17443.8 18853.3 15046.2 9356.64 -434.872 6109.64 28949.6 17998.8 31981.3 37279.9 73280 1533.86 -135.716 34347 18352.5 36335.9 44321.9 57559
internal_weight=0 10821 7162 2140 5022 3358 3659 2347 3009 257 5214 1809 1883 1766 1369 1441 1568 672 349 228 397 233 69 1751 1570 58 1106 188 173 94
internal_count=16035 10821 7162 2140 5022 3358 3659 2347 3009 257 5214 1809 1883 1766 1369 1441 1568 672 349 228 397 233 69 1751 1570 58 1106 188 173 94
is_linear=0
shrinkage=0.1


Tree=17
num_leaves=31
num_cat=0
split_feature=0 2 0 2 3 3 2 3 2 3 2 6 0 4 2 6 0 3 3 3 2 3 2 3 6 2 2 6 3 3
split_gain=5.98484e+13 3.09019e+13 2.31144e+13 2.14415e+13 1.85859e+13 1.05395e+13 9.70564e+12 1.2499e+13 7.70169e+12 1.07494e+13 7.45435e+12 6.13695e+12 6.07218e+12 4.91581e+12 4.9135e+12 4.48058e+12 4.35592e+12 4.34166e+12 4.21687e+12 4.57591e+12 4.10284e+12 3.94973e+12 3.70751e+12 4.13078e+12 3.65785e+12 3.45843e+12 3.31145e+12 3.0891e+12 3.08662e+12 3.06148e+12
threshold=0.53219631597180694 -0.12528448976441536 1.0000000180025095e-35 -0.4811650049848068 0.29394187928330157 0.040746427031090819 -0.14011284456526496 0.62504362453619255 0.44560717006829603 0.29394187928330157 1.6392897315366923 0.65028233375639566 1.5794074054671532 1.0000000180025095e-35 -0.45892247278353232 3.102358342726188 -1.5622258630188848 -0.81622279597639158 -0.58250391697435089 -0.67988678322520113 -0.65910526259500235 0.21603558628262134 -1.4153513574383341 -0.77726964947605137 2.5033779435885291 0.36405121866362306 -0.184597908967814 -1.1279407261835299 0.56661390478568241 1.3456768347924848
decision_type=2 2 2 2 2 2 2 2 2 2 2 2 2 2 2 2 2 2 2 2 2 2 2 2 2 2 2 2 2 2
left_child=2 4 16 11 12 -3 7 26 9 -5 15 21 14 -14 18 29 -1 -18 19 -2 -15 22 23 -4 -9 27 -6 -19 -13 -7
right_child=1 5 3 8 6 10 -8 24 -10 -11 -12 28 13 20 -16 -17 17 25 -20 -21 -22 -23 -24 -25 -26 -27 -28 -29 -30 -31
leaf_value=-16312.487686648899 13513.737977875337 -4596.3373678364114 62511.386820652173 -4218.0487464649577 76672.916326574385 7209.0294691106237 98592.584157986115 19131.943644458828 -8428.646968438652 8480.6600744622465 -4205.4429283625495 22378.999035815981 58819.205189887158 45539.513154468208 2218.6645932995434 34796.241490644294 -13632.501785200549 -13297.896102140186 26599.617461645699 -25619.976929450757 14294.919696044923 15180.078243825847 3658.6278259218839 2578.2320142663048 57031.078182246769 -14621.572883224488 36297.724947684153 -3256.9918474580904 61544.980573918278 18294.399286474883
leaf_weight=720 316 998 23 2257 74 841 27 209 1958 946 363 89 45 57 355 81 981 355 262 33 160 483 1304 23 29 400 28 2238 26 354
leaf_count=720 316 998 23 2257 74 841 27 209 1958 946 363 89 45 57 355 81 981 355 262 33 160 483 1304 23 29 400 28 2238 26 354
internal_value=0 10151.2 -3709.73 -113.79 21138.6 3505.42 40884.5 36301.8 -3487.84 -467.509 8438.64 8825.35 15237.3 28739.7 11575.2 12035.7 -9155.73 -7859.09 17011.4 9813.42 22502 7419.47 4642.9 32544.8 23749.9 -5966.77 65589.5 -4631.66 31233.9 10492.9
internal_weight=0 4232 11803 7109 1595 2637 367 340 5161 3203 1639 1948 1228 262 966 1276 4694 3974 611 349 217 1833 1350 46 238 2993 102 2593 115 1195
internal_count=16035 4232 11803 7109 1595 2637 367 340 5161 3203 1639 1948 1228 262 966 1276 4694 3974 611 349 217 1833 1350 46 238 2993 102 2593 115 1195
is_linear=0
shrinkage=0.1


Tree=18
num_leaves=31
num_cat=0
split_feature=0 2 0 2 3 5 3 2 3 7 2 5 3 5 5 2 3 2 5 2 0 3 2 2 2 3 3 2 5 2
split_gain=4.84772e+13 2.50305e+13 1.87227e+13 1.73676e+13 1.50546e+13 9.62373e+12 8.53699e+12 7.86157e+12 1.01242e+13 6.81139e+12 6.10097e+12 5.85747e+12 5.40185e+12 5.36102e+12 5.13972e+12 5.11063e+12 4.90906e+12 4.81628e+12 4.35341e+12 4.15309e+12 3.5283e+12 3.70842e+12 3.32391e+12 2.97787e+12 2.95335e+12 2.73357e+12 2.98489e+12 2.71412e+12 3.62748e+12 2.70001e+12
threshold=0.53219631597180694 -0.12528448976441536 1.0000000180025095e-35 -0.4811650049848068 0.29394187928330157 0.78292084118115246 0.040746427031090819 -0.14011284456526496 0.62504362453619255 -1.1293662750502471 1.7356740377422151 1.0000000180025095e-35 1.0000000180025095e-35 1.7202729709379987 -0.81069393208575324 -0.39219487617970888 -0.52407419722384063 -1.4153513574383341 0.22538797589826989 -0.45892247278353232 -1.5622258630188848 -0.27087874497163 -1.1113700840209164 0.36405121866362306 0.44560717006829603 1.3456768347924848 1.3651534080426548 -0.59979184339160385 0.40194004990451604 0.94235705589675911
decision_type=2 2 2 2 2 2 2 2 2 2 2 2 2 2 2 2 2 2 2 2 2 2 2 2 2 2 2 2 2 2
left_child=2 4 20 14 5 11 -3 8 27 12 13 -2 -5 25 -4 -7 17 -16 24 -13 -1 22 -22 -23 -11 -8 -27 -6 -29 -14
right_child=1 6 3 9 7 15 10 -9 -10 18 -12 19 29 -15 16 -17 -18 -19 -20 -21 21 23 -24 -25 -26 26 -28 28 -30 -31
leaf_value=-14681.23882903205 160.89567973119972 -4136.7036955028834 -4646.7508503646304 -3808.9814544824458 81599.851183035717 64592.70575810186 6775.9646365346307 88733.324645543995 21374.914985592626 -4380.4162534141042 -4626.1164830502385 22051.501413229242 13832.249099263465 58494.784222146744 42661.628228759771 16725.026937705592 15460.33362559427 3100.6938644568768 345.04240735664598 7451.596808782273 -1073.5427729637943 -2242.1613903328448 -12005.769277071924 -12318.242543726476 -10771.724040728619 49551.966391225964 14467.085159801907 28711.326164729424 76459.989678485581 -11825.455585259333
leaf_weight=720 338 998 278 416 35 54 903 27 238 1895 327 460 463 23 32 38 835 803 1173 338 335 1644 1638 357 1169 26 360 41 26 45
leaf_count=720 338 998 278 416 35 54 903 27 238 1895 327 460 463 23 32 38 835 803 1173 338 335 1644 1638 357 1169 26 360 41 26 45
internal_value=0 9136.06 -3338.76 -102.411 19024.7 13713.6 3154.88 36796 32671.6 -3139.05 7594.78 11194.3 4640.31 10640.7 7942.82 44821.3 10038.6 4616.8 -4835.57 15867.6 -8240.16 -7073.18 -10149.6 -4039.84 -6818.88 9786.81 16830.3 59030.6 47240.7 11559.4
internal_weight=0 4232 11803 7109 1595 1228 2637 367 340 5161 1639 1136 924 1312 1948 92 1670 835 4237 798 4694 3974 1973 2001 3064 1289 386 102 67 508
internal_count=16035 4232 11803 7109 1595 1228 2637 367 340 5161 1639 1136 924 1312 1948 92 1670 835 4237 798 4694 3974 1973 2001 3064 1289 386 102 67 508
is_linear=0
shrinkage=0.1


Tree=19
num_leaves=31
num_cat=0
split_feature=1 2 3 5 5 2 5 2 5 6 5 3 4 6 6 4 3 2 5 5 3 3 3 5 4 2 2 5 4 2
split_gain=3.25763e+13 2.62157e+13 2.74006e+13 1.30627e+13 1.05823e+13 7.42501e+12 7.35856e+12 6.23266e+12 5.44937e+12 4.94516e+12 5.09901e+12 4.91625e+12 4.81269e+12 7.5011e+12 5.2895e+12 4.66068e+12 4.51397e+12 3.26418e+12 4.71528e+12 3.15214e+12 3.11003e+12 4.50463e+12 3.04219e+12 2.94662e+12 2.8423e+12 2.70235e+12 2.6658e+12 6.26695e+12 4.71505e+12 2.66291e+12
threshold=1.0000000180025095e-35 0.44560717006829603 0.21603558628262134 0.52970799819851 0.60172265996421559 -0.4811650049848068 1.8724329820881185 -0.33288145697631039 -0.18579251224785595 2.9806904491513513 0.15337331413256422 -0.27087874497163 1.5943784676111423 0.44438282155282532 2.0541426442352848 3.1104435636519985 0.25498873278296147 -1.1780976806247399 -0.16720808340509319 -0.72474094868797556 -0.42669133097299045 1.6183488602948655 1.4820128475436751 -0.27406854925097895 1.0000000180025095e-35 -0.43667994058225784 -1.1113700840209164 -0.68292598379175939 1.0000000180025095e-35 2.7810730512021151
decision_type=2 2 2 2 2 2 2 2 2 2 2 2 2 2 2 2 2 2 2 2 2 2 2 2 2 2 2 2 2 2
left_child=1 2 4 9 5 8 15 -6 26 17 -11 23 14 -14 -5 20 -2 19 25 -4 -3 22 -22 -7 -18 -19 27 -1 -29 -24
right_child=16 6 3 12 7 11 -8 -9 -10 10 -12 -13 13 -15 -16 -17 24 18 -20 -21 21 -23 29 -25 -26 -27 -28 28 -30 -31
leaf_value=700.30514207145666 -9132.8304940883136 -10722.634172237727 10919.79306475106 22418.580862954026 35913.66176287616 -13679.536046369925 32764.549676983177 8449.3015716409463 10784.358372588724 73651.201307091353 18025.03881076389 6025.2307678330872 91764.648853975188 26267.76129557292 73179.971212635865 35450.734388950892 -5091.5078771396693 8695.7875738083949 13717.251510202263 43210.224175434734 -3029.831768287273 -12626.548787544869 16005.187745657477 -2999.6153156168493 3385.1551737877148 -5515.626085580273 -2434.2422034716365 14532.565850694446 67391.827980324088 -5956.4592554604133
leaf_weight=239 2930 841 59 191 135 298 52 213 1021 26 45 564 34 36 23 28 1775 318 1342 62 1563 444 169 1941 509 231 792 45 27 82
leaf_count=239 2930 841 59 191 135 298 52 213 1021 26 45 564 34 36 23 28 1775 318 1342 62 1563 444 169 1941 509 231 792 45 27 82
internal_value=0 3087 6261.6 15200.6 2250.49 1060.14 -4544.42 19103.6 5519.69 12457.5 38395.2 -2319.13 35319.5 58080.5 27874.2 -5164.85 -6535.02 11542.2 10523.4 27465.3 -5531.82 -3598.48 -1388.74 -4421.06 -3202.44 2716.12 646.417 8491.7 34354.8 8830.47
internal_weight=0 10821 7642 2367 5275 4927 3179 348 2124 2083 71 2803 284 70 214 3127 5214 2012 1891 121 3099 2258 1814 2239 2284 549 1103 311 72 251
internal_count=16035 10821 7642 2367 5275 4927 3179 348 2124 2083 71 2803 284 70 214 3127 5214 2012 1891 121 3099 2258 1814 2239 2284 549 1103 311 72 251
is_linear=0
shrinkage=0.1


Tree=20
num_leaves=31
num_cat=0
split_feature=0 5 0 7 6 4 6 6 5 6 5 1 5 7 7 0 5 0 5 4 6 6 6 5 6 7 7 7 7 5
split_gain=3.54879e+13 1.88762e+13 1.31561e+13 1.11062e+13 7.6135e+12 7.265e+12 6.57892e+12 6.13155e+12 4.9942e+12 4.69139e+12 4.0966e+12 3.74466e+12 6.32301e+12 3.66072e+12 6.57855e+12 3.58712e+12 3.5563e+12 5.01748e+12 3.14324e+12 2.9604e+12 2.58818e+12 2.33914e+12 3.96712e+12 2.2467e+12 2.14355e+12 2.27092e+12 2.00421e+12 3.52169e+12 4.48298e+12 2.77268e+12
threshold=0.53219631597180694 1.8724329820881185 1.0000000180025095e-35 -1.1293662750502471 -0.4353696396806116 1.5943784676111423 1.8856794069778178 0.72272152577710647 0.52970799819851 -0.11716130263873022 -0.095193421639387557 1.0000000180025095e-35 0.23932629753034193 1.2220826203717523 1.4265564373649697 1.5794074054671532 0.013990097811843587 1.5794074054671532 3.8075366353407905 1.5943784676111423 0.93105439585217342 0.55201211202287348 3.0087676553609293 -0.88735470106214964 -0.25099598557105085 -1.1293662750502471 -1.1293662750502471 0.40418735239888282 0.50642426089549153 -0.50405085618016787
decision_type=2 2 2 2 2 2 2 2 2 2 2 2 2 2 2 2 2 2 2 2 2 2 2 2 2 2 2 2 2 2
left_child=2 3 11 10 -4 -3 9 8 26 15 -2 12 23 -8 -15 -5 17 -12 24 -18 -11 -21 -23 -1 -10 -26 -6 -28 29 -29
right_child=1 5 4 6 7 -7 13 -9 18 20 16 -13 -14 14 -16 -17 19 -19 -20 21 -22 22 -24 -25 25 -27 27 28 -30 -31
leaf_value=-16540.31882723295 -4899.3148182134519 35969.980909946986 -9147.3437427230074 3256.8759068532036 3600.461078435279 113778.49532412575 11609.845341993763 15103.855080044148 42762.582080078129 -7758.1855077017244 20657.244263824705 -9016.1111017377389 15255.892859622732 72367.908437499995 10745.073999618902 15053.963625338161 8486.7276432203216 53971.010604580973 -25589.311701766306 33639.646561569942 2868.7273206226587 -8043.2175321691175 28306.586317422945 -3682.8324628933005 22935.362631835938 6060.6643456189386 -3985.4875965644369 3923.2982640165446 176.57423197012187 29040.791811899038
leaf_weight=156 87 28 853 1554 933 21 310 291 22 562 254 3263 170 30 41 309 414 55 23 105 387 51 73 1055 110 290 2495 85 1772 91
leaf_count=156 87 28 853 1554 933 21 310 291 22 562 254 3263 170 30 41 309 414 55 23 105 387 51 73 1055 110 290 2495 85 1772 91
internal_value=0 7605.95 -3046.08 6891.43 -297.234 69316.5 3969.18 937.9 229.724 2298.35 15871.9 -7168.77 -2803.89 16300.9 36782.9 5213.56 17770.2 26586.9 10410.6 13533.2 -3424.56 22656.5 13356.3 -5339.12 12372.7 10701.2 -612.998 -1497.8 1688.44 16910.2
internal_weight=0 4281 11609 4232 6965 49 3193 6112 5821 2812 1039 4644 1381 381 71 1863 952 309 445 643 949 229 124 1211 422 400 5376 4443 1948 176
internal_count=15890 4281 11609 4232 6965 49 3193 6112 5821 2812 1039 4644 1381 381 71 1863 952 309 445 643 949 229 124 1211 422 400 5376 4443 1948 176
is_linear=0
shrinkage=0.1


Tree=21
num_leaves=31
num_cat=0
split_feature=0 2 7 7 0 2 5 5 5 5 0 2 6 2 6 6 4 0 2 5 6 5 0 2 6 6 2 2 0 5
split_gain=2.87452e+13 2.02427e+13 1.22606e+13 1.20582e+13 1.06564e+13 1.13232e+13 9.86908e+12 6.79469e+12 5.53821e+12 5.32906e+12 5.27815e+12 5.46738e+12 4.84775e+12 4.70061e+12 4.2095e+12 4.13947e+12 3.70986e+12 3.69246e+12 3.45496e+12 3.40681e+12 3.40571e+12 3.12152e+12 2.88664e+12 2.801e+12 2.60216e+12 2.5566e+12 2.36702e+12 2.35124e+12 4.48225e+12 2.17896e+12
threshold=0.53219631597180694 -0.43667994058225784 -1.1293662750502471 1.2220826203717523 1.0000000180025095e-35 -0.74807539140010026 1.5262979948916626 -0.51566612420689462 0.40194004990451604 1.0000000180025095e-35 1.5794074054671532 -0.97791489081326988 0.73732167300608686 0.88304363669336039 -0.11716130263873022 2.4395490948054221 3.1104435636519985 1.5794074054671532 -1.1632693258238902 0.89442741423772887 -0.16142969776249771 -0.50405085618016787 -1.5622258630188848 -0.5256500693873557 4.1318559037440403 1.8856794069778178 1.1573682005090793 -0.82221716540434853 1.5794074054671532 -0.018532652662991221
decision_type=2 2 2 2 2 2 2 2 2 2 2 2 2 2 2 2 2 2 2 2 2 2 2 2 2 2 2 2 2 2
left_child=4 3 6 9 22 12 16 -5 13 18 11 -9 21 20 19 -16 25 29 -2 27 -7 -6 -1 -24 -19 -3 -10 28 -11 -4
right_child=1 2 17 7 5 8 -8 10 26 14 -12 -13 -14 -15 15 -17 -18 24 -20 -21 -22 -23 23 -25 -26 -27 -28 -29 -30 -31
leaf_value=-12248.42749640524 37009.824679129466 8159.9287433915761 -10364.492586099666 1750.4850106698495 763.3588299186863 -7838.051661020254 81742.524748883938 80490.579156494146 8186.0394082581588 26714.012551099204 102826.32122395834 29156.080472060381 39146.843327636721 -9699.4759893437531 -402.02041431183511 28308.27347410153 47311.121316002158 6039.0082351824567 -24.803533619428535 66627.560342261902 -437.54624388194327 11550.03198365149 -2861.8989730092962 -8218.4027958939314 39213.516851562505 24035.249859719203 -4748.8151629511513 18846.232032505748 77296.4274502841 -791.10799663057583
leaf_weight=725 28 602 274 27 441 770 21 32 661 86 21 59 50 946 141 78 29 436 251 21 3232 685 2077 1842 25 122 180 209 22 1797
leaf_count=725 28 602 274 27 441 770 21 32 661 86 21 59 50 946 141 78 29 436 251 21 3232 685 2077 1842 25 122 180 209 22 1797
internal_value=0 6845.35 3111.02 19507.6 -2741.48 -267.511 14125.6 46780.7 -2084.81 14972.9 57636.3 47207.8 8678.36 -3359.97 20623.6 9823.56 12239.8 -255.982 3691.93 27621.2 -1861.43 7325.41 -6451.89 -5379.55 7838.06 10835.1 5417.58 25037.2 37017.8 -2057.7
internal_weight=0 4281 3306 975 11609 6965 774 139 5789 836 112 91 1176 4948 557 219 753 2532 279 338 4002 1126 4644 3919 461 724 841 317 108 2071
internal_count=15890 4281 3306 975 11609 6965 774 139 5789 836 112 91 1176 4948 557 219 753 2532 279 338 4002 1126 4644 3919 461 724 841 317 108 2071
is_linear=0
shrinkage=0.1


Tree=22
num_leaves=31
num_cat=0
split_feature=6 1 2 3 2 7 2 7 2 3 7 3 4 3 3 2 2 2 6 3 3 4 3 2 2 3 7 2 3 3
split_gain=2.26708e+13 1.69186e+13 1.59329e+13 1.58811e+13 7.71182e+12 6.515e+12 5.31544e+12 4.98221e+12 4.21459e+12 6.43475e+12 4.68883e+12 8.95759e+12 4.79491e+12 4.55309e+12 3.76538e+12 3.57997e+12 3.3372e+12 3.77923e+12 3.19254e+12 3.0799e+12 3.15589e+12 2.98944e+12 2.8905e+12 2.73001e+12 2.72495e+12 2.6247e+12 2.33813e+12 2.2692e+12 3.23046e+12 2.7024e+12
threshold=1.735934307193403 1.0000000180025095e-35 0.44560717006829603 0.21603558628262134 -0.74807539140010026 1.2220826203717523 -0.82221716540434853 0.19971353540566544 -0.33288145697631039 0.62504362453619255 -1.2316031835468557 1.3651534080426548 1.5943784676111423 0.56661390478568241 1.3456768347924848 -1.3634521156353603 -1.1780976806247399 -1.2596536320294127 -0.54889514345467105 -0.42669133097299045 1.6183488602948655 1.0000000180025095e-35 1.3651534080426548 -1.1929260354255893 -0.77773210100179957 -0.3682616112224803 -1.2316031835468557 -0.14011284456526496 -1.361566846981153 -1.4394731399818332
decision_type=2 2 2 2 2 2 2 2 2 2 2 2 2 2 2 2 2 2 2 2 2 2 2 2 2 2 2 2 2 2
left_child=1 2 3 6 5 -2 7 -1 9 13 11 12 -10 -5 23 21 17 -11 -8 -4 -21 -9 -16 -3 -15 -25 -6 29 -29 -20
right_child=4 14 19 8 26 -7 18 15 10 16 -12 -13 -14 24 22 -17 -18 -19 27 20 -22 -23 -24 25 -26 -27 -28 28 -30 -31
leaf_value=18330.352891178722 26734.460196238553 -627.37990527842783 -10204.89272720553 20725.892533431073 26475.809274924337 86975.995763221159 -9013.2075252008672 11675.616940696023 31265.89346431903 3224.1751177619485 4658.047694992184 6361.0393862637611 83357.527437337252 69178.753343290446 20155.661844499147 713.47073762485752 5007.4297695540354 48072.287160528278 -9669.4359964266696 -901.96810871191599 -10412.60902440586 56822.645429687509 -940.15369275000796 -10540.249508122841 32333.567671795285 -5289.3399851618597 10577.049371095949 23292.41556058843 -3311.6939793811271 3728.415398349729
leaf_weight=291 58 636 777 277 111 26 422 55 67 34 1028 176 24 34 73 692 371 42 165 1700 439 20 589 1761 49 2072 555 47 1580 1719
leaf_count=291 58 636 777 277 111 26 422 55 67 34 1028 176 24 34 73 692 371 42 165 1700 439 20 589 1761 49 2072 555 47 1580 1719
internal_value=0 -983.475 1409.98 3968.16 16828.1 45380.6 897.385 7189.48 11259.4 16931.7 7724.64 19531.6 45004.3 26881.9 -5652.37 2962.63 8918.15 28008.7 -795.224 -4812.65 -2853.89 23714.8 1386.12 -6694.99 47426.8 -7701.77 13226.8 192.525 -2543.17 2555.04
internal_weight=0 15140 10009 7093 750 84 4991 1058 2102 807 1295 267 91 360 5131 767 447 76 3933 2916 2139 75 662 4469 83 3833 666 3511 1627 1884
internal_count=15890 15140 10009 7093 750 84 4991 1058 2102 807 1295 267 91 360 5131 767 447 76 3933 2916 2139 75 662 4469 83 3833 666 3511 1627 1884
is_linear=0
shrinkage=0.1


Tree=23
num_leaves=31
num_cat=0
split_feature=0 2 3 7 0 2 3 4 3 2 2 0 3 3 3 3 2 2 3 3 3 3 3 1 2 2 3 3 3 3
split_gain=2.06446e+13 1.42414e+13 9.33156e+12 8.46413e+12 7.87957e+12 8.20815e+12 4.58099e+12 4.2411e+12 3.89018e+12 4.00756e+12 3.75385e+12 3.54956e+12 3.77543e+12 4.06357e+12 3.29289e+12 5.80172e+12 2.71766e+12 2.54724e+12 2.50223e+12 2.26064e+12 2.22309e+12 2.38346e+12 2.27086e+12 2.2156e+12 3.34154e+12 1.98997e+12 5.43348e+12 2.47554e+12 1.91563e+12 2.06054e+12
threshold=0.53219631597180694 -0.74807539140010026 -0.52407419722384063 -1.1293662750502471 1.0000000180025095e-35 -0.22908297337036276 0.21603558628262134 3.1104435636519985 0.040746427031090819 0.89787199149421004 -1.1929260354255893 1.5794074054671532 0.23551215953279139 0.60556705128602251 -0.01768329271941935 -0.3293084647221402 0.86821528189251085 0.4678497022695704 0.079699573531430937 -0.93308223547741187 -1.010988528478092 -0.73831650297571128 -1.5368560062326835 1.1493871794888573 -0.43667994058225784 -0.45892247278353232 -1.4005199934814931 -1.010988528478092 0.62504362453619255 1.7157317265457157
decision_type=2 2 2 2 2 2 2 2 2 2 2 2 2 2 2 2 2 2 2 2 2 2 2 2 2 2 2 2 2 2
left_child=4 2 10 14 23 6 20 17 -7 16 -2 12 -4 -14 15 -3 -10 18 19 25 22 -22 -6 24 -1 26 -5 -28 -8 -30
right_child=1 3 11 7 5 8 28 -9 9 -11 -12 -13 13 -15 -16 -17 -18 -19 -20 -21 21 -23 -24 -25 -26 -27 27 -29 29 -31
leaf_value=1189.01778041785 38772.246169517784 42131.734144176138 18599.769914140776 -15271.462216996175 27305.220003255206 -5890.6851956223327 17994.383122694973 28094.09033203125 2922.9899699094822 -5519.8011090861501 -312.15628487723217 59312.951359558108 78599.056280048084 31147.492155430682 15644.914825070286 -2521.8008538967224 40065.226367187504 -2791.1311540015718 8199.6705222749642 -5408.7967342034026 11922.842832783292 1977.1989087333095 -4030.911159394032 -7269.3444717096791 -7377.599079287892 -124.46645773671156 47974.193627929693 15857.587175750734 2375.0684436605134 20841.395983500421
leaf_weight=978 29 33 131 49 24 2163 273 57 1312 787 161 48 26 59 686 246 20 1262 617 423 308 1107 635 2814 852 326 32 96 257 79
leaf_count=978 29 33 131 49 24 2163 273 57 1312 787 161 48 26 59 686 246 20 1262 617 423 308 1107 635 2814 852 326 32 96 257 79
internal_value=0 5807.11 22552.9 3820.55 -2317.35 -190 4146.86 1089.75 -2907.37 137.888 5653.36 34715.4 29249.3 45662.1 11919.6 2759.8 3480.68 540.996 3266.3 -20.8382 1907.76 4142.05 -2889.69 -5507.92 -2799.37 4510.19 13046.3 23886.7 11772.3 6716.85
internal_weight=0 4281 454 3827 11609 6965 2683 2862 4282 2119 190 264 216 85 965 279 1332 2805 1543 926 2074 1415 659 4644 1830 503 177 128 609 336
internal_count=15890 4281 454 3827 11609 6965 2683 2862 4282 2119 190 264 216 85 965 279 1332 2805 1543 926 2074 1415 659 4644 1830 503 177 128 609 336
is_linear=0
shrinkage=0.1


Tree=24
num_leaves=31
num_cat=0
split_feature=6 1 2 3 5 5 2 5 2 5 4 5 2 5 5 6 2 3 3 5 2 2 5 3 3 3 3 3 2 5
split_gain=1.63839e+13 1.18583e+13 1.11086e+13 1.06515e+13 6.48083e+12 5.54181e+12 5.68138e+12 4.20766e+12 3.40346e+12 5.73517e+12 3.37192e+12 3.19456e+12 3.17393e+12 4.93588e+12 4.24234e+12 2.96254e+12 2.91636e+12 2.90736e+12 2.54035e+12 3.31184e+12 2.27775e+12 2.26225e+12 2.83786e+12 2.48953e+12 2.20635e+12 2.14663e+12 2.5541e+12 1.9921e+12 1.98178e+12 1.89096e+12
threshold=1.6984980322472993 1.0000000180025095e-35 0.44560717006829603 0.21603558628262134 0.60172265996421559 1.8724329820881185 -0.94084400381114575 2.8945765684400704 -1.3634521156353603 -0.45526673046791577 3.1104435636519985 1.2080396509593505 -0.79997463320307405 -0.51566612420689462 1.0000000180025095e-35 -0.54889514345467105 -0.15494119936611456 1.3067236882921447 1.2482939685416345 -0.18579251224785595 -1.1929260354255893 -0.43667994058225784 -0.81069393208575324 -1.4005199934814931 -1.1473245412292823 -0.42669133097299045 1.6183488602948655 -1.1083713947289422 0.54940565367424343 -0.14165449374629441
decision_type=2 2 2 2 2 2 2 2 2 2 2 2 2 2 2 2 2 2 2 2 2 2 2 2 2 2 2 2 2 2
left_child=1 2 3 4 8 6 -2 25 9 -1 11 12 13 -5 -14 -10 -6 20 -15 -20 -3 22 -17 -24 -25 -4 28 -22 -27 -23
right_child=5 17 7 10 16 -7 -8 -9 15 -11 -12 -13 14 18 -16 21 -18 -19 19 -21 27 29 23 24 -26 26 -28 -29 -30 -31
leaf_value=3323.921342677696 53267.69969815341 -233.28161573829891 -8866.6289442111793 7054.4112549799147 23038.190374213325 64787.682682291663 10828.454123961976 41673.332465820313 -7349.3514293753587 65417.196400669651 48224.802394797589 41825.605233028022 -2817.423715761875 44453.079726562501 9248.5490417256588 -9950.4487869857203 3338.0822106649707 843.82322597070458 47039.398814174114 5160.9519663843621 -12149.098246684829 -9780.5958978950985 -3591.661882353992 24238.662527465822 5219.2046861481049 -10564.854726048521 -9556.524925592259 -5722.4739483212943 278.06482066367687 -639.86807703825298
leaf_weight=51 33 636 772 220 180 21 715 20 552 21 22 29 376 70 1295 154 129 787 28 58 570 256 328 64 1298 190 433 3136 1494 1952
leaf_count=51 33 636 772 220 180 21 715 20 552 21 22 29 376 70 1295 154 129 787 28 58 570 256 328 64 1298 190 433 3136 1494 1952
internal_value=0 -839.786 1166.59 3303.4 787.651 14123.2 12700.8 -4036.25 -139.232 21434.5 9281 8868.3 8401.39 16702.5 6533.52 -476.614 14813.9 -4748.48 30308.7 18795.8 -5762.1 459.653 3045.21 4229.43 6112.92 -4352.68 -2706.6 -6710.92 -945.305 -1699.66
internal_weight=0 15121 9992 7083 4985 769 748 2909 4676 72 2098 2076 2047 376 1671 4604 309 5129 156 86 4342 4052 1844 1690 1362 2889 2117 3706 1684 2208
internal_count=15890 15121 9992 7083 4985 769 748 2909 4676 72 2098 2076 2047 376 1671 4604 309 5129 156 86 4342 4052 1844 1690 1362 2889 2117 3706 1684 2208
is_linear=0
shrinkage=0.1


Tree=25
num_leaves=31
num_cat=0
split_feature=4 5 1 2 3 4 5 3 2 5 5 5 7 2 5 3 7 7 3 3 2 5 7 2 3 3 7 3 7 5
split_gain=1.39677e+13 1.22404e+13 8.62097e+12 9.37517e+12 1.05877e+13 6.52895e+12 5.35452e+12 4.98434e+12 4.07398e+12 4.59309e+12 4.39813e+12 3.71259e+12 3.49753e+12 3.3291e+12 3.29799e+12 2.74638e+12 2.70784e+12 2.69205e+12 2.65251e+12 3.86342e+12 5.09596e+12 2.59976e+12 2.48269e+12 3.77896e+12 2.7542e+12 2.46879e+12 2.39274e+12 2.26937e+12 2.19558e+12 1.98358e+12
threshold=1.5943784676111423 1.8724329820881185 1.1493871794888573 0.36405121866362306 0.21603558628262134 3.1104435636519985 0.60172265996421559 -1.4979028597323434 -0.97791489081326988 -0.69454125181848614 1.0000000180025095e-35 1.0802717026653565 0.81313498638531756 -0.77773210100179957 -0.56677330352449218 -0.42669133097299045 -1.2316031835468557 1.0176088033785351 -1.1083713947289422 -0.93308223547741187 -0.82221716540434853 0.64121457125508652 1.2220826203717523 -1.0298141326162433 1.2482939685416345 1.6183488602948655 1.0176088033785351 -0.48512105072350065 -1.1293662750502471 0.2160957614768885
decision_type=2 2 2 2 2 2 2 2 2 2 2 2 2 2 2 2 2 2 2 2 2 2 2 2 2 2 2 2 2 2
left_child=2 5 3 4 6 13 7 -1 9 -6 -10 15 -7 14 -2 -5 -15 -16 -9 29 26 -12 -11 -24 -25 -17 -21 -22 -8 -20
right_child=1 -3 -4 11 8 12 28 18 10 22 21 -13 -14 16 17 25 -18 -19 19 20 27 -23 23 24 -26 -27 -28 -29 -30 -31
leaf_value=48225.555757068454 -5490.1446120689652 77792.905888310182 -4979.8811007850063 -8586.8045353403704 5396.5811801662694 22632.464906249999 23782.51919921875 -4277.9175030303422 -1103.8477224153157 15825.726396793058 8209.2294280522601 12880.886612322773 64450.699875000006 16584.912686734588 21873.983525028936 -1008.0014902361005 1588.9284500169313 62727.205027173914 4993.9411634829648 11904.988856586657 -7451.3647183242538 23218.872337137058 59891.544473071808 53081.555976562508 8163.684126884993 -9277.2897797091118 1582.0771069587681 -858.52100569337279 6377.2988460019642 18663.115999227495
leaf_weight=21 29 27 3446 962 154 100 120 1425 533 87 1263 135 25 148 54 2224 646 23 511 361 814 127 47 20 43 431 594 1456 183 134
leaf_count=21 29 27 3446 962 154 100 120 1425 533 87 1263 135 25 148 54 2224 646 23 511 361 814 127 47 20 43 431 594 1456 183 134
internal_value=0 11331.4 -586.172 714.018 2670.29 9580.72 340.354 -396.632 8427.52 18334.7 6619.19 -3401.36 30996.1 6606.36 23251.9 -4009.07 4384.15 34076.9 -589.468 768.682 -644.33 9580.61 28448.8 38432.5 22423.3 -2350.4 5484.25 -3222.65 13270.5 7833.74
internal_weight=0 1052 15091 11645 7893 1025 5619 5316 2274 351 1923 3752 125 900 106 3617 794 77 5295 3870 3225 1390 197 110 63 2655 955 2270 303 645
internal_count=16143 1052 15091 11645 7893 1025 5619 5316 2274 351 1923 3752 125 900 106 3617 794 77 5295 3870 3225 1390 197 110 63 2655 955 2270 303 645
is_linear=0
shrinkage=0.1


Tree=26
num_leaves=31
num_cat=0
split_feature=0 0 5 6 4 7 7 3 3 6 3 6 5 3 3 4 6 7 6 3 3 3 3 6 4 0 3 3 3 3
split_gain=1.78578e+13 8.99283e+12 8.2402e+12 7.28528e+12 8.30575e+12 7.15353e+12 5.88686e+12 7.89078e+12 5.21594e+12 4.7164e+12 3.61765e+12 3.86236e+12 3.25139e+12 2.83915e+12 3.1132e+12 2.59136e+12 3.04657e+12 2.30519e+12 2.16856e+12 2.05054e+12 1.99699e+12 6.14013e+12 1.97066e+12 2.03828e+12 2.96848e+12 1.93755e+12 1.89868e+12 1.65157e+12 1.92816e+12 5.50483e+12
threshold=1.5794074054671532 1.0000000180025095e-35 0.52970799819851 4.7869907153008553 1.0000000180025095e-35 -1.1293662750502471 -1.1293662750502471 1.3456768347924848 -1.5368560062326835 0.7584731683506355 -1.1083713947289422 -0.29077202770128602 1.5262979948916626 1.7741614462962261 1.3067236882921447 3.1104435636519985 0.59412792133724013 1.2220826203717523 -1.0905044512374262 1.3651534080426548 -1.361566846981153 -1.4005199934814931 -0.056636439219759464 0.24877828495943341 1.0000000180025095e-35 -1.5622258630188848 0.58609047803585246 -0.93308223547741187 -0.79674622272622142 -0.73831650297571128
decision_type=2 2 2 2 2 2 2 2 2 2 2 2 2 2 2 2 2 2 2 2 2 2 2 2 2 2 2 2 2 2
left_child=1 18 8 4 5 -2 7 22 -3 10 20 -12 15 14 27 -6 -17 19 -1 -16 21 -10 -4 24 -24 -20 -5 -13 -29 -30
right_child=3 2 6 26 12 -7 -8 -9 9 -11 11 13 -14 -15 17 16 -18 -19 25 -21 -22 -23 23 -25 -26 -27 -28 28 29 -31
leaf_value=-9161.0189422184685 68810.721018125958 40368.726513671878 4384.8481780720649 35350.066934313094 3773.3588396565146 19871.121638183595 4527.5953626480832 63605.917917351973 -5677.8099636230472 6418.2355793520328 -5817.8599980672207 5458.6206617178441 44892.217507102272 -9144.9103768195819 18391.161659691221 49615.790822928298 2536.9477068865745 23298.889173302287 -9181.4616925922965 3446.5894676365056 -8010.5655967878774 20678.242362774938 8214.832927684296 7204.7221887807382 42916.475169076497 -2471.5726662821971 75691.624252929687 -6913.8241919799175 36500.289669363839 104.64940450223563
leaf_weight=767 41 32 107 28 569 110 741 38 450 1003 948 593 22 262 105 28 27 78 494 731 963 110 39 61 67 3340 20 386 42 3941
leaf_count=767 41 32 107 28 569 110 741 38 450 1003 948 593 22 262 105 28 27 78 494 731 963 110 39 61 67 3340 20 386 42 3941
internal_value=0 -610.267 979.839 14323.2 12044.5 33159.4 9379.32 20902.2 62.7243 -71.4613 -827.55 122.806 7108.99 1040.33 1494.47 5776.89 26504.4 6857.6 -4307.15 5323.6 -5249.23 -500.728 14979.7 21768.1 30148.9 -3336.12 52159 506.582 -165.553 488.435
internal_weight=0 15298 10697 845 797 151 1053 312 9644 9612 8609 7086 646 6138 5876 624 55 914 4601 836 1523 560 274 167 106 3834 48 4962 4369 3983
internal_count=16143 15298 10697 845 797 151 1053 312 9644 9612 8609 7086 646 6138 5876 624 55 914 4601 836 1523 560 274 167 106 3834 48 4962 4369 3983
is_linear=0
shrinkage=0.1


Tree=27
num_leaves=31
num_cat=0
split_feature=0 2 0 2 3 3 3 2 5 7 3 5 5 7 5 5 2 5 5 1 3 5 2 3 2 7 5 5 3 3
split_gain=1.44648e+13 9.90983e+12 7.28419e+12 9.12532e+12 8.41587e+12 5.03202e+12 4.0968e+12 4.09244e+12 4.23544e+12 4.23428e+12 6.09703e+12 3.93552e+12 4.38232e+12 6.44071e+12 3.21559e+12 2.84539e+12 2.83921e+12 2.78254e+12 2.77065e+12 2.67224e+12 2.92952e+12 2.16173e+12 2.20878e+12 1.94291e+12 2.25438e+12 1.60007e+12 1.60069e+12 1.8802e+12 1.58062e+12 5.57609e+12
threshold=1.5794074054671532 -0.5849634885907542 1.0000000180025095e-35 0.36405121866362306 0.21603558628262134 0.58609047803585246 -1.5368560062326835 -0.97791489081326988 0.28578736963724882 -1.2316031835468557 1.3651534080426548 1.8724329820881185 0.002374829785116868 -1.1293662750502471 0.60172265996421559 -0.5528349818924202 -0.91118729420944644 1.0802717026653565 -0.58071162515656427 1.1493871794888573 1.735208299795886 -0.52960444583896671 -0.14011284456526496 -0.42669133097299045 2.5586477291893708 -1.1293662750502471 1.2823773663304012 0.69232175057268408 -1.4005199934814931 -1.361566846981153
decision_type=2 2 2 2 2 2 2 2 2 2 2 2 2 2 2 2 2 2 2 2 2 2 2 2 2 2 2 2 2 2
left_child=2 5 -1 4 6 16 -4 15 18 10 -10 12 13 -3 21 -6 -2 23 -9 20 -17 -8 28 -5 -25 26 27 -16 -23 -30
right_child=1 11 3 17 7 -7 14 8 9 -11 -12 -13 -14 -15 25 19 -18 -19 -20 -21 -22 22 -24 24 -26 -27 -28 -29 29 -31
leaf_value=-3876.4348383669076 -401.41742001488097 48404.020059640068 36331.854235839848 -7527.736992289656 8553.2078501454598 86179.957180059529 -4899.2694850604139 -8438.8638094584148 72937.376660156253 10148.084220153811 15953.467704050165 50636.025035511368 2183.7364605011289 9744.6050631110047 40677.336132812503 41523.934638487619 42714.773170471191 11544.498754882814 5256.9037441450164 2892.7034667968751 2832.7849202473958 -3481.7940086792355 -2192.7852981276146 -1081.3238039509429 -9575.2108758051745 4783.8131269290125 43287.087076822922 5484.3922557043661 33931.205581054688 2949.4523703309442
leaf_weight=4601 21 56 32 944 143 21 805 168 28 400 57 22 482 187 20 106 56 125 1223 34 24 339 1467 2284 362 162 24 63 60 1827
leaf_count=4601 21 56 32 944 143 21 805 168 28 400 57 22 482 187 20 106 56 125 1223 34 24 339 1467 2284 362 162 24 63 60 1827
internal_value=0 12890.9 -549.24 881.855 3012.36 42789.6 670.768 8160 6408.47 14455.3 34724.6 8968.43 7704.04 18653.8 431.382 18863.1 30955.8 -3122.23 3602.78 27852.9 34381 -203.765 819.761 -3632.91 -2243.37 11051.8 20541.6 13964.6 2805.12 3934.56
internal_weight=0 845 15298 10697 6982 98 4799 2183 1876 485 85 747 725 243 4767 307 77 3715 1391 164 130 4498 3693 3590 2646 269 107 83 2226 1887
internal_count=16143 845 15298 10697 6982 98 4799 2183 1876 485 85 747 725 243 4767 307 77 3715 1391 164 130 4498 3693 3590 2646 269 107 83 2226 1887
is_linear=0
shrinkage=0.1


Tree=28
num_leaves=31
num_cat=0
split_feature=0 2 4 2 5 7 5 2 7 5 4 2 0 2 5 5 2 4 5 2 5 2 5 2 5 2 7 2 2 1
split_gain=1.17165e+13 8.02696e+12 6.08724e+12 6.06893e+12 3.97474e+12 5.08943e+12 5.3975e+12 4.69957e+12 3.20757e+12 3.18777e+12 3.59599e+12 3.56789e+12 2.95593e+12 3.5969e+12 2.8888e+12 2.34018e+12 2.23959e+12 2.2284e+12 2.16863e+12 2.55379e+12 2.1591e+12 2.10703e+12 2.64065e+12 1.77067e+12 1.69249e+12 1.61604e+12 1.58471e+12 3.13788e+12 1.85686e+12 1.65683e+12
threshold=1.5794074054671532 -0.5849634885907542 1.0000000180025095e-35 0.36405121866362306 0.28578736963724882 -1.1293662750502471 0.83170496689340467 -1.4375938896396085 -1.2316031835468557 1.8724329820881185 1.0000000180025095e-35 -0.036314360959317581 1.0000000180025095e-35 -0.22908297337036276 -0.018532652662991221 1.0221953625317231 -0.33288145697631039 3.1104435636519985 0.13711193889514683 -0.91118729420944644 -0.18579251224785595 -0.86670222980689748 -0.38325206870221012 -1.0742991970187925 -0.5528349818924202 2.3213940523757763 1.3243195288683609 -1.2596536320294127 -0.59979184339160385 1.0000000180025095e-35
decision_type=2 2 2 2 2 2 2 2 2 2 2 2 2 2 2 2 2 2 2 2 2 2 2 2 2 2 2 2 2 2
left_child=2 18 12 4 7 6 -6 -4 -8 10 11 -3 -1 14 23 -7 -10 -12 19 -2 -15 -9 -23 24 -14 -22 -16 -28 29 -29
right_child=1 9 3 -5 5 15 8 21 16 -11 17 -13 13 20 26 -17 -18 -19 -20 -21 25 22 -24 -25 -26 -27 27 28 -30 -31
leaf_value=-3949.7304390721765 23158.241728515626 48864.489214409725 42255.00237792969 -2189.1806366211681 13729.719866022075 7324.3761951496854 76425.457874644882 7614.3307363297499 53535.834680706525 45572.421857244321 1501.4964122383551 11673.660794235062 1701.2698065396014 -11469.119696358888 4573.1954408355114 -11902.289378276626 11071.563266782408 20730.391136977254 21686.701617005816 67952.740721261172 -1147.9218128015643 -3678.8214422364831 3858.6132439245539 -4487.3390316812611 26521.39851413303 -10104.714330941133 -7039.9251747532899 52371.796300899623 5769.1890887920672 16943.382120028411
leaf_weight=4246 20 36 30 1955 265 379 22 601 23 22 530 91 116 243 1208 76 27 68 43 35 3194 776 1159 608 36 215 38 33 26 22
leaf_count=4246 20 36 30 1955 265 379 22 601 23 22 530 91 116 243 1208 76 27 68 43 35 3194 776 1159 608 36 215 38 33 26 22
internal_value=0 11601.8 -494.316 2240.3 4819.11 11011.8 20326.4 2907.73 44605.8 8071.59 6933.63 22215.9 -1949.4 -469.46 2842.23 4112.89 30605.1 3688.06 38510.6 51663.8 -2361.99 2442.26 835.849 -2073.93 7579.72 -1712.81 5657.82 16668.1 27790.4 38200.4
internal_weight=0 845 15298 5313 3358 792 337 2566 72 747 725 127 9985 5739 2087 455 50 598 98 55 3652 2536 1935 760 152 3409 1327 119 81 55
internal_count=16143 845 15298 5313 3358 792 337 2566 72 747 725 127 9985 5739 2087 455 50 598 98 55 3652 2536 1935 760 152 3409 1327 119 81 55
is_linear=0
shrinkage=0.1


Tree=29
num_leaves=31
num_cat=0
split_feature=6 0 4 1 5 5 6 3 3 6 3 6 3 3 3 3 3 3 5 3 3 3 4 6 3 5 4 3 3 3
split_gain=1.00601e+13 5.73424e+12 5.19039e+12 4.36853e+12 6.06461e+12 3.64009e+12 3.08816e+12 2.49663e+12 5.79061e+12 2.26814e+12 2.20494e+12 2.35884e+12 2.75519e+12 1.94755e+12 2.49601e+12 1.91832e+12 1.93787e+12 2.66713e+12 1.86031e+12 1.60556e+12 3.28602e+12 1.73309e+12 1.50574e+12 6.38782e+12 2.25052e+12 1.44946e+12 1.35744e+12 1.15465e+12 1.1399e+12 5.0316e+12
threshold=2.5408142185346327 1.5794074054671532 1.0000000180025095e-35 1.0000000180025095e-35 0.46466249724884029 1.6308354071322031 9.5788339084021299 -0.38773818447265035 1.0000000180025095e-35 -0.33008011639469498 0.56661390478568241 3.701338741863847 1.3651534080426548 1.3456768347924848 1.3651534080426548 -1.1083713947289422 -1.361566846981153 -1.4005199934814931 0.13246583168445614 1.754684873046056 1.4820128475436751 -0.93308223547741187 1.5943784676111423 0.44438282155282532 0.23551215953279139 0.32760233453346504 3.1104435636519985 -1.010988528478092 -0.79674622272622142 -0.73831650297571128
decision_type=2 2 2 2 2 2 2 2 2 2 2 2 2 2 2 2 2 2 2 2 2 2 2 2 2 2 2 2 2 2
left_child=1 3 7 4 9 6 10 -3 -9 -1 -2 18 -13 25 -15 16 17 -11 -12 20 21 27 -6 24 -24 -5 -4 -17 -23 -30
right_child=5 2 26 13 22 -7 -8 8 -10 15 11 12 -14 14 -16 19 -18 -19 -20 -21 -22 28 23 -25 -26 -27 -28 -29 29 -31
leaf_value=-4249.334312139842 9675.5527128810518 5953.1008137155086 2497.7858066774766 -3329.5412820421452 5997.9539862572556 54806.901207386371 -23393.872576349433 82082.824375000011 22210.76798466274 -1949.3981860473377 34121.720282745366 64382.14307002315 17282.774014945651 18164.299827042545 -324.72272232784667 444.75924452463789 -6061.3423190911808 16750.104888853093 3362.7502380371097 -6077.9157479393562 9526.130349168403 -5578.8451867311396 17853.589631535458 -16278.359018707277 57747.948865927421 -10570.455125911816 21250.310723005023 9445.1044736595923 32015.0782109375 105.76387205728678
leaf_weight=1311 255 47 477 4186 1204 22 22 20 84 357 32 27 23 83 607 240 841 97 51 302 458 335 26 32 31 296 42 351 50 4234
leaf_count=1311 255 47 477 4186 1204 22 22 20 84 357 32 27 23 83 607 240 841 97 51 302 458 335 26 32 31 296 42 351 50 4234
internal_value=0 -288.985 8762.86 -692.199 541.537 15179.6 13053.2 25080.5 33724.6 -421.01 15119.8 25558 42716.4 -3046.36 1899.32 269.827 -3219.12 2045.87 15221.6 1026.64 1405.18 691.29 6925.76 19477.2 39550.5 -3807.75 4015.33 5790.14 38.8926 478.188
internal_weight=0 15711 670 15041 9869 432 410 151 104 8576 388 133 50 5172 690 7265 1295 454 83 5970 5668 5210 1293 89 57 4482 519 591 4619 4284
internal_count=16143 15711 670 15041 9869 432 410 151 104 8576 388 133 50 5172 690 7265 1295 454 83 5970 5668 5210 1293 89 57 4482 519 591 4619 4284
is_linear=0
shrinkage=0.1


Tree=30
num_leaves=31
num_cat=0
split_feature=6 2 3 3 5 5 2 4 6 2 5 2 5 2 3 3 3 7 2 3 2 6 6 2 2 2 4 6 6 5
split_gain=6.35786e+12 5.26822e+12 7.343e+12 5.58017e+12 4.35257e+12 3.66147e+12 3.01406e+12 4.89952e+12 4.13772e+12 4.35144e+12 5.03349e+12 2.77854e+12 2.68647e+12 2.54954e+12 2.26605e+12 2.04421e+12 1.96385e+12 1.90449e+12 1.92422e+12 1.85867e+12 1.82478e+12 1.79269e+12 1.80999e+12 1.73243e+12 1.78502e+12 7.21134e+12 1.9397e+12 1.46123e+12 1.32172e+12 1.22814e+12
threshold=2.2787602939119069 0.44560717006829603 1.3456768347924848 1.3651534080426548 0.16731163576463629 -0.60394216121001765 -0.22908297337036276 1.5943784676111423 0.83512394130278278 -0.86670222980689748 0.74342892989028153 0.40112210566574696 1.8724329820881185 -0.33288145697631039 -0.01768329271941935 0.29394187928330157 -0.037159865969589402 1.2220826203717523 -1.2596536320294127 -1.361566846981153 -0.74807539140010026 8.4183093850729147 4.0382652163787816 -0.26615386037248701 -0.33288145697631039 -0.36253816657800958 1.0000000180025095e-35 -0.1049945132812464 0.46310095902587717 0.320633173717429
decision_type=2 2 2 2 2 2 2 2 2 2 2 2 2 2 2 2 2 2 2 2 2 2 2 2 2 2 2 2 2 2
left_child=1 2 5 4 -4 20 7 12 9 -9 14 19 23 15 -11 16 -2 -5 -19 -8 -1 22 -15 24 25 26 28 -28 -7 -24
right_child=13 -3 3 17 -6 6 11 8 -10 10 -12 -13 -14 21 -16 -17 -18 18 -20 -21 -22 -23 29 -25 -26 -27 27 -29 -30 -31
leaf_value=-1015.4229102172609 22324.65665893555 -3874.823979443292 17683.003878498766 3262.585844616799 59682.881189778651 350.05663946580921 14515.691209827772 59173.898937174483 -5219.2891792297369 -4215.1417974753458 62343.235472470245 11589.901331826488 -11728.734172664277 3752.7617102001359 23392.494298895475 42733.758448660723 -7921.651023646763 2877.8109533091065 26723.858664582905 -2431.5250719178889 -6462.8053299787343 -18645.476880787039 7213.0221376076724 12340.61120080103 -5458.1560157681697 45050.577577248601 8987.6841101632999 891.9119566041702 19120.105182527241 30994.252333535955
leaf_weight=1258 92 3620 139 734 30 2942 66 30 64 61 21 155 146 247 58 35 28 61 76 3324 1203 27 39 158 324 39 568 367 38 49
leaf_count=1258 92 3620 139 734 30 2942 66 30 64 61 21 155 146 247 58 35 28 61 76 3324 1203 27 39 158 324 39 568 367 38 49
internal_value=0 -535.62 483.426 8509.35 25138.6 -287.87 710.062 2339.03 16453.1 24612.2 17206.1 -1502.94 1618.23 10737.5 9240.68 21469.3 15267.2 5282.78 16106.3 -2101.58 -3678.24 6142.35 8140.17 2057.51 1677.72 2262.45 1836.21 5809.99 589.406 20454.8
internal_weight=0 15482 11862 1040 169 10822 8361 4816 234 170 140 3545 4582 517 119 155 120 871 137 3390 2461 362 335 4436 4278 3954 3915 935 2980 88
internal_count=15999 15482 11862 1040 169 10822 8361 4816 234 170 140 3545 4582 517 119 155 120 871 137 3390 2461 362 335 4436 4278 3954 3915 935 2980 88
is_linear=0
shrinkage=0.1


Tree=31
num_leaves=31
num_cat=0
split_feature=0 2 2 6 3 5 5 5 2 2 3 3 5 0 2 5 2 5 5 3 3 2 5 2 5 2 2 6 2 0
split_gain=6.24803e+12 5.45643e+12 7.01465e+12 4.57171e+12 4.51821e+12 3.47707e+12 7.60404e+12 3.93102e+12 3.1342e+12 2.96006e+12 2.95369e+12 2.37661e+12 2.09967e+12 1.9553e+12 2.4846e+12 2.36429e+12 2.04059e+12 1.97007e+12 1.94699e+12 1.88698e+12 2.5455e+12 1.55883e+12 1.46114e+12 1.44889e+12 1.63601e+12 1.58148e+12 2.70917e+12 1.48731e+12 2.05211e+12 1.4924e+12
threshold=0.53219631597180694 -0.33288145697631039 -0.36253816657800958 0.30961223174685193 0.21603558628262134 0.002374829785116868 -0.25780717401356157 0.34618676337622778 0.88304363669336039 -0.74807539140010026 1.3456768347924848 -0.27087874497163 1.8724329820881185 1.0000000180025095e-35 -1.3412095834340858 -0.50405085618016787 -0.22908297337036276 -0.78746339603229987 1.0221953625317231 0.29394187928330157 0.62504362453619255 1.0000000180025095e-35 0.60172265996421559 -0.83704552020519818 -0.11610090408749564 -0.68876197219670166 -0.65910526259500235 -0.1049945132812464 -0.91118729420944644 1.5794074054671532
decision_type=2 2 2 2 2 2 2 2 2 2 2 2 2 2 2 2 2 2 2 2 2 2 2 2 2 2 2 2 2 2
left_child=3 2 4 8 18 6 -6 -7 10 -8 13 -3 -13 -1 17 -16 19 -15 23 22 -21 -5 -17 27 -25 -26 -27 28 -2 -30
right_child=1 11 -4 21 5 7 9 -9 -10 -11 -12 12 -14 14 15 16 -18 -19 -20 20 -22 -23 -24 24 25 26 -28 -29 29 -31
leaf_value=-3353.5043816964953 4669.7304701487219 -3159.8473145695657 59355.830425347231 11587.827149076242 -946.67996419270844 -16413.332096022004 65010.235035400401 19073.918950990188 -6410.8200173056202 30909.210818917411 4459.321960954835 2373.0137728708555 26087.941506476152 -1142.6443275188578 -5395.0144216042981 935.71816735557832 -1516.4308137031392 33273.658111728771 33983.781036086315 25041.7788907783 3637.9871714209294 1087.047818145752 15964.081973805149 -8493.4682701697729 -9880.7379310825909 37027.257678674767 3858.7029795619419 -1107.3845963016634 18206.98413748014 49249.107328869053
leaf_weight=4047 96 973 27 344 60 49 40 86 1304 70 845 2131 38 29 864 1331 2348 39 21 86 157 240 68 156 70 27 280 93 59 21
leaf_count=4047 96 973 27 344 60 49 40 86 1304 70 845 2131 38 29 864 1331 2348 39 21 86 157 240 68 156 70 27 280 93 59 21
internal_value=0 3106.96 8984.34 -1351.71 7778.64 18174.9 27689.7 6193.36 -1804.71 43309.6 -1192.69 946.436 2788.49 -1725.19 -386.343 -652.27 374.731 18596.1 3925.82 3079.02 11213 7272.44 1666.19 3138.77 119.212 3683.08 6775.81 9121.75 14526.9 26355.5
internal_weight=0 4297 1155 11702 1128 305 170 135 11118 110 9814 3142 2169 8969 4922 4854 3990 68 823 1642 243 584 1399 802 533 377 307 269 176 80
internal_count=15999 4297 1155 11702 1128 305 170 135 11118 110 9814 3142 2169 8969 4922 4854 3990 68 823 1642 243 584 1399 802 533 377 307 269 176 80
is_linear=0
shrinkage=0.1


Tree=32
num_leaves=31
num_cat=0
split_feature=6 2 3 3 4 2 4 2 3 3 3 3 5 5 2 3 3 6 4 7 2 3 2 2 3 6 6 2 3 5
split_gain=4.60031e+12 3.9523e+12 5.40375e+12 4.59182e+12 3.25417e+12 2.66592e+12 3.72404e+12 2.49493e+12 2.36427e+12 2.40011e+12 2.76749e+12 2.35998e+12 2.3588e+12 2.24113e+12 1.98183e+12 1.68745e+12 3.10299e+12 2.19551e+12 1.73446e+12 1.51203e+12 1.56834e+12 1.50952e+12 1.49967e+12 2.74974e+12 1.49831e+12 1.48938e+12 1.68042e+12 2.50465e+12 2.15191e+12 1.47252e+12
threshold=1.6984980322472993 0.88304363669336039 1.3456768347924848 1.3651534080426548 1.5943784676111423 -0.22908297337036276 3.1104435636519985 -0.94084400381114575 -0.58250391697435089 -1.5173794329825134 -1.4394731399818332 -0.67988678322520113 -0.27406854925097895 1.8724329820881185 -1.4153513574383341 0.85876250353823325 0.25498873278296147 -0.26690640242314495 1.5943784676111423 1.2220826203717523 -1.2596536320294127 -1.361566846981153 -0.26615386037248701 -0.33288145697631039 -0.037159865969589402 9.5788339084021299 4.1318559037440403 -0.11045613496356579 1.0000000180025095e-35 0.26487988718914074
decision_type=2 2 2 2 2 2 2 2 2 2 2 2 2 2 2 2 2 2 2 2 2 2 2 2 2 2 2 2 2 2
left_child=1 2 5 4 -4 6 8 -2 9 14 -11 -12 -7 25 -1 16 22 -18 -19 29 -21 -14 23 24 -10 26 -9 28 -28 -5
right_child=7 -3 3 19 -6 12 -8 13 15 10 11 -13 21 -15 -16 -17 17 18 -20 20 -22 -23 -24 -25 -26 -27 27 -29 -30 -31
leaf_value=26841.328536635177 34289.854734848486 -4495.2173613238083 15886.04229853204 530.82589934505165 54387.967450420678 -6922.844100762275 34829.6771270752 3779.6688822498422 3432.9387777470133 -9389.7081431620827 339.7543135861585 -10043.403603615276 14630.902296990864 36913.747172214673 1764.4408326721191 -2262.4797669634268 -2993.9519529133818 9687.8673997594269 32243.762369791672 2036.3623319031763 23693.72570206926 -1475.9254616874641 11184.202412978917 -13998.441349283854 -2394.6125118579894 -21704.13283203125 15339.83197591146 3484.9045344277033 55995.880944293487 10459.586947177319
leaf_weight=52 33 2149 141 727 26 886 32 581 1387 444 2055 245 59 23 80 674 137 643 36 61 74 4217 146 120 647 20 30 63 23 188
leaf_count=52 33 2149 141 727 26 886 32 581 1387 444 2055 245 59 23 80 674 137 643 36 61 74 4217 146 120 647 20 30 63 23 188
internal_value=0 -520.853 132.272 6478.13 21880.4 -518.901 797.287 7386.98 633.915 -1528.01 -2161.61 -766.278 -2226.73 6187.26 11643.2 2274.47 3255.83 8553.8 10883.8 4028.44 13907.8 -1253.68 1376.2 711.401 1579.24 5201.61 5973.65 16962.5 32983 2570.83
internal_weight=0 15226 13077 1217 167 11860 6698 773 6666 2876 2744 2300 5162 740 132 3790 3116 816 679 1050 135 4276 2300 2154 2034 717 697 116 53 915
internal_count=15999 15226 13077 1217 167 11860 6698 773 6666 2876 2744 2300 5162 740 132 3790 3116 816 679 1050 135 4276 2300 2154 2034 717 697 116 53 915
is_linear=0
shrinkage=0.1


Tree=33
num_leaves=31
num_cat=0
split_feature=1 2 5 2 5 5 2 3 3 5 7 5 3 3 2 4 3 2 2 5 2 2 4 3 3 5 7 2 1 3
split_gain=4.02671e+12 4.48981e+12 3.59003e+12 2.78277e+12 3.38187e+12 3.14883e+12 4.97224e+12 2.91014e+12 2.59065e+12 2.38411e+12 3.65949e+12 4.05179e+12 2.25575e+12 1.68967e+12 1.86633e+12 3.02266e+12 1.60383e+12 1.4841e+12 1.46885e+12 1.34452e+12 1.40379e+12 1.36451e+12 1.22744e+12 1.17785e+12 4.01721e+12 1.11779e+12 1.11597e+12 1.11503e+12 1.78945e+12 1.09472e+12
